16,785,0.46849,-0.38671,-0.854241,-0.422706,0.477131,-0.0124187,-0.38532,-0.538196,-0.982841,0.168304,-0.845104,-0.746093,0.893491,0.326246,0.311417,0.157996,0.984756,-0.391487,0.999167,-0.457774,-0.393225,-0.939926,-0.0752255,0.982427,0.434808,-0.360742,0.466435,0.880748,0.76974,-0.571159,-0.904223,0.23823,0.0354786,-0.759336,0.824005,-0.492979,0.238413,-0.549377,-0.0308114,0.239891,0.608963,0.131355,0.536017,0.524498,-0.562762,-0.154929,-0.322348,-0.578006,0.453584,-0.323181,-0.0357801,-0.939641,-0.263107,0.888994,-0.957214,-0.828299,-0.471748,0.509221,-0.947551,-0.702008,0.938063,-0.851775,0.536222,-0.0264587,-0.61111,0.360227,0.480562,0.627303,0.81085,-0.550249,-0.132806,0.419812,0.581106,-0.59679,-0.0556901,-0.981657,0.248281,0.621962,-0.559663,-0.298135,-0.701219,0.404557,-0.237775,0.0356736,0.293551,-0.194989,0.207374,0.821804,-0.685768,0.259823,-0.880204,-0.747705,0.408048,0.656018,0.225836,0.796938,0.0162449,-0.293602,0.424241,-0.172905,0.156149,-0.708566,-0.753093,-0.262745,-0.305355,0.191217,-0.244402,0.942926,-0.186821,0.195935,-0.355209,0.11196,-0.399508,0.407016,-0.852366,0.894043,-0.787973,0.355008,0.715847,-0.473741,-0.38517,0.835643,-0.221446,-0.977121,0.491661,-0.99561,0.819816,-0.492094,-0.289211,0.244057,0.335,0.866938,0.535491,0.581908,-0.395807,-0.769864,-0.226875,0.359791,-0.826938,0.586304,-0.444274,-0.182147,-0.301736,0.156218,-0.775131,-0.154103,0.050261,-0.563104,-0.799095,-0.233892,-0.0368448,-0.184264,-0.39825,0.741709,-0.161386,-0.906589,0.746099,-0.341569,-0.398683,-0.543112,0.902488,0.936317,-0.676174,0.437979,0.518225,-0.0719809,0.668115,-0.708651,-0.71219,0.841177,0.877653,-0.156464,-0.340969,-0.424083,0.999754,-0.1161,0.421814,0.0500152,0.320796,0.62272,0.816123,-0.716049,-0.561545,-0.582127,-0.97434,0.277069,-0.488716,0.77176,0.9355,0.112601,-0.771352,0.837988,0.0489181,-0.447526,0.275967,-0.432857,0.480493,-0.0559181,-0.141508,0.768303,-0.214741,-0.263855,-0.38816,0.44429,0.312062,-0.388406,-0.67181,-0.266124,0.661609,0.648598,-0.643404,0.477732,0.932937,-0.204895,0.895605,0.958598,-0.914918,-0.572617,0.730357,-0.99004,0.519532,0.959005,0.831666,-0.420522,-0.488521,0.113196,0.135552,0.991972,-0.934344,0.995071,0.760275,-0.149085,-0.24143,-0.583012,-0.704795,-0.90747,-0.0162017,-0.376605,-0.253926,-0.330444,-0.727619,0.124344,-0.87695,-0.794682,0.927773,-0.980334,-0.836085,0.999894,-0.574455,0.894273,-0.992486,0.995287,0.853278,0.853121,-0.486026,-0.635243,-0.0253042,0.648648,-0.643271,0.0403522,0.643041,-0.882953,0.891268,-0.62677,-0.51088,-0.813527,-0.58452,0.474923,-0.190132,0.191607,-0.881831,0.0822483,-0.67567,-0.758803,0.287566,-0.747896,-0.740148,0.451481,-0.748003,-0.314602,0.345754,-0.740489,-0.369566,0.199032,-0.887368,0.14388,0.563789,0.0873281,-0.207123,0.920518,-0.87232,-0.564082,-0.962477,-0.981052,-0.190852,-0.473357,-0.794579,0.224628,0.999472,0.0152885,-0.583765,-0.882381,-0.902463,-0.259435,-0.641184,0.385103,-0.00733107,-0.381332,-0.163416,0.244666,0.304066,-0.817661,0.504177,0.9345,0.381371,0.616809,0.07838,-0.0548404,-0.295863,0.871257,-0.134322,-0.168182,-0.692825,-0.0967989,-0.149235,0.116322,0.429844,0.0561862,-0.65905,0.429316,-0.928525,-0.242814,0.546935,-0.830988,0.497751,0.90575,0.554115,-0.50958,-0.475582,-0.609301,0.735086,0.828484,-0.426962,0.239263,0.762985,0.954408,-0.143928,-0.158635,-0.100432,0.560209,-0.287378,0.765246,-0.607973,0.0197965,-0.331553,0.242792,-0.863881,-0.901709,-0.701022,-0.522931,0.527607,-0.629547,0.234255,0.074542,-0.460535,-0.267994,-0.0197076,-0.90642,0.222426,0.504711,-0.515721,-0.0424884,0.333195,0.0573164,-0.803225,0.0961801,0.0117247,0.0528467,0.937545,0.911293,-0.386944,-0.349833,0.676538,0.00508273,0.669963,-0.655015,-0.752125,0.806082,-0.556724,-0.453147,-0.716849,0.970884,-0.0826933,0.517406,0.0454258,0.456772,-0.750589,-0.974282,0.550351,0.471837,0.530429,-0.96537,-0.570652,-0.136376,0.0919462,-0.373877,0.959805,-0.896329,0.67897,0.89735,-0.985037,-0.707975,-0.452484,0.691502,0.297108,-0.78252,-0.963513,0.544983,-0.976439,-0.520236,-0.908163,-0.693287,-0.549353,0.00914335,0.824118,0.496073,-0.534085,-0.926471,0.521791,-0.983734,0.545366,0.0522203,-0.949104,0.974714,0.915845,0.142842,-0.399163,0.875649,0.246513,-0.720193,0.772999,0.261476,-0.428168,-0.679485,-0.0470218,0.868941,-0.462005,-0.0105347,0.413924,-0.438444,0.469229,0.50576,-0.131731,0.919876,-0.485096,-0.307613,0.415949,-0.0191813,-0.234084,-0.0622597,-0.00291532,-0.688718,0.989961,0.0479805,-0.714003,0.905805,-0.809178,-0.113166,0.781455,0.437335,0.166641,0.554454,-0.301188,0.738473,0.874969,0.65179,0.607414,-0.587036,-0.358745,0.0213376,-0.0254802,-0.889516,-0.472902,0.842789,-0.96964,0.0420018,-0.464825,0.446309,-0.977179,0.301091,-0.61595,0.0199052,0.612373,-0.62599,-0.932114,0.89837,-0.720184,-0.741292,-0.214796,-0.93873,0.696044,0.951845,0.615724,-0.605145,0.690318,0.490693,-0.953354,0.297732,0.903657,-0.312099,-0.68093,-0.121823,-0.201615,-0.153832,-0.279035,-0.171255,0.88817,0.25614,-0.724945,0.91099,-0.442768,-0.340896,-0.0691046,-0.830395,0.0331148,-0.00121897,-0.932025,0.31293,0.257489,-0.146821,0.374201,-0.0464671,-0.194976,-0.0099736,0.348388,-0.504658,-0.519378,0.395034,0.793074,-0.615559,-0.917066,-0.887856,0.262494,-0.118587,-0.0416882,0.983417,0.710065,-0.153519,0.239557,0.985423,-0.242528,0.796789,-0.355766,0.688367,0.966394,0.677826,-0.312853,-0.96563,-0.00960468,0.94491,-0.112451,-0.63553,-0.10183,0.693061,0.354395,-0.748693,-0.812085,0.835014,0.641076,1.00002,-0.780711,0.763288,-0.906866,0.48174,-0.394153,0.0514458,0.465157,-0.684108,0.897927,-0.288838,-0.698969,-0.329381,-0.498414,-0.0550317,-0.657757,-0.504885,-0.377435,0.145934,-0.497401,0.612864,-0.0241597,0.389817,0.977334,0.874597,0.08239,0.439349,-0.87972,0.291289,0.167123,0.747887,0.235543,0.474772,0.484948,0.490395,-0.116189,-0.907754,-0.60241,-0.659853,-0.591842,-0.696052,0.0376431,-0.263533,-0.0507982,0.549627,0.642955,0.282144,-0.947076,-0.68653,-0.677243,-0.405673,0.901933,0.299406,0.902091,0.86887,0.173153,-0.00736379,0.198968,0.294461,-0.748177,-0.618178,-0.00404363,0.49785,0.761352,-0.437253,-0.153008,-0.170217,-0.361085,0.243323,-0.0462336,0.0422255,0.537227,1.0197,0.751299,-0.545524,0.50338,0.43094,0.775251,0.537321,0.671779,-0.895149,-0.954414,0.649791,0.397893,0.94586,0.402908,-0.423896,-0.0737665,-0.354394,0.869297,0.359903,-0.0464953,-0.0407735,-0.31935,-0.241588,0.504043,0.566585,0.375867,-0.846893,-0.232859,-0.678813,0.111487,-0.67113,-0.681598,-0.0891743,-0.204196,0.98202,-0.721595,-0.410601,0.364932,0.975445,-0.252322,0.484727,0.554885,-0.785702,0.354459,-0.0192786,-0.358213,-0.642552,0.633708,-0.359694,0.478509,-0.575676,0.450954,-0.821856,0.282955,-0.069194,0.420064,-0.214676,0.116247,-0.370103,0.102405,-0.844196,-0.239478,0.405934,0.0535471,0.555292,0.264831,0.288223,-0.860003,-0.342711,0.145772,-0.108592,-1.35302,-0.107694,0.14537,0.669069,0.915099,0.557424,0.768717,0.469063,-0.915998,0.146396,-0.844312,0.507565,0.388605,0.561704,-0.61358,0.0685414,-0.825315,0.52822,0.472053,0.740603,0.626274,-0.691587,-0.0649053,-0.316913,0.875797,-0.961539,-0.964024,-0.726212,-0.24936,0.336646,-0.204485,-0.187173,-0.614848,0.755179,-0.752853,-0.729147,0.288637,-0.966273,0.689332,0.385005,0.267145,0.81014,-0.0866448,-0.0440211,0.373131,0.324552,0.735184,0.693468,-0.152216,0.278631,0.116135,-0.502009,0.575647,0.953796,0.149492,0.465836,-0.942634,0.186789,0.480613,0.275504,-0.444582,-0.690735,0.623783,-0.18603,-0.90458,0.922545,-0.0370909,0.361206,0.956645,-0.377083,-0.274287,0.183268,-0.550823,0.644836,0.883191,0.905059,0.00522661,0.621067,0.484406,0.835971,-0.077756,-0.365592,-0.694553,-0.490412,-0.412009,0.445418,0.951414,-0.409843,-0.362393,0.432556,0.454546,0.274262,0.74844,0.0932065,-1.0017,0.801599,0.0191301,-0.0272771,0.149849,-0.00138668,0.600208,0.87286,-0.800979,-0.98306,0.515818,-0.918193,0.871693,-0.379583,0.702888,0.388661,-0.641461,-0.398009,-0.976882,-0.333033,0.0891793,-0.386784,-0.879628,0.0402488,0.256189,-0.244452,-0.528069,-0.289324,0.951053,-0.771586,0.804609,0.959971,-0.981905,-0.179385,-0.0665797,0.172164,0.794354,-0.46555,0.0482544,0.99297,-0.41698,-0.435862,-0.925223,-0.545292,0.0851822,0.777665,0.843916,0.446742,-0.620343,0.866772,-0.886291,0.468836,-0.522418,-0.765871,-0.490915,0.733711,-0.00784403,-0.0189839,-0.555613,-0.0567912,0.201388,-0.751004,-0.0959919,0.223703,0.0696113,0.837428,-0.604132,-0.136035,-0.628942,0.444188,-0.143064,-0.0459271,-0.991674,-0.0682868,0.408781,0.093508,-0.290621,0.252697,-0.45975,0.0890355,0.119469,-0.346042,-0.442128,0.597051,-0.111913,0.0669565,0.330762,0.880243,-0.952027,0.775149,-0.176548,0.24936,-0.975855,0.72746,-0.526937,0.0937567,0.564888,-0.131069,0.957722,0.935946,-0.686881,-0.185342,-0.109981,-0.678555,0.746371,-0.7012,0.414953,-0.54425,0.551497,0.955202,0.544785,-0.329034,-0.390839,-0.897343,-0.731983,0.497248,0.169613,0.59878,0.377491,0.217586,0.373929,-0.799058,-0.533054,0.398074,0.928402,-0.0599907,-0.508169,0.49329,0.80894,-0.550447,0.429237,-0.877941,0.264211,-0.680745,-0.556496,0.0105822,-0.381945,0.858457,0.466332,-0.830447,0.813659,0.0111172,-0.159481,-0.577093,0.113774,0.108536,0.920068,-0.716613,-0.292684,0.297558,0.500973,-0.918755,0.498501,0.967919,0.479319,0.426903,-0.0920715,0.97115,-0.0798065,-0.283131,-0.579296,-0.652182,-0.161072,0.684915,-0.331315,0.282433,-0.304503,0.286741,0.14089,-0.838171,0.456294,-0.0454455,0.172946,-0.697698,0.377369,-0.71326,0.40476,0.297437,-0.429581,-0.887392,-0.405005,-0.92795,-0.806029,-0.906581,-0.961021,0.673575,0.520399,-0.0530635,0.64438,-0.558135,0.663797,-0.934702,-0.210083,-0.497275,0.75,0.458703,0.785158,-0.552949,-0.254681,-0.0742124,-0.392849,-0.797713,0.880596,0.780311,-0.501444,0.265603,-0.9333,0.904834,-0.44225,-0.363005,-0.978693,0.159287,-0.291821,-0.777477,0.242776,-0.284004,0.879491,-0.235702,0.694106,0.527973,0.204894,0.480618,0.590446,1.00797,0.850875,0.337323,0.455852,0.789992,0.788457,-0.561459,-0.422712,-0.681698,-0.61789,-0.501448,-0.823737,-0.0908849,0.71046,-0.345895,-0.199117,-0.691317,-0.144736,-0.234042,0.458362,0.754539,0.0201699,-0.0616657,-0.642891,-0.18275,0.396071,-0.939593,-0.557878,-0.303108,0.388746,-0.573158,-0.375386,0.340477,0.320507,-0.999897,-0.0557468,0.369269,-0.843819,0.895945,0.571195,-0.52406,0.731621,0.773508,0.577038,0.5883,0.982621,-0.226724,0.906249,-0.118946,0.036938,0.243176,-0.764752,-0.474633,0.812594,0.303689,0.0327308,0.255402,-0.818943,0.771701,-0.975466,-0.879871,0.621919,0.266372,0.475049,0.259446,-0.373487,-0.710372,-1.23244,0.161768,0.628101,1.43516,0.405286,0.475209,-0.0985299,0.532462,0.360407,0.421552,0.638391,1.76937,-0.716406,0.206276,-0.746584,-0.341921,-0.16583,-0.249823,0.352933,0.17507,0.5116,-1.03414,0.611211,1.20833,-0.423721,0.58021,-0.394823,0.479076,-0.60179,0.665359,-0.98612,-0.484348,-0.312892,-0.553338,-0.914114,-0.139547,0.606164,0.517527,0.276471,0.47008,0.243369,0.411181,-0.463128,1.3394,0.647471,0.368679,-0.949317,-0.331213,0.92643,1.06144,-0.108103,1.49214,-1.41096,-0.781711,0.443306,-0.0577259,-0.74418,-0.147933,-0.143696,0.306234,0.356496,0.431419,-0.0877667,0.632688,-0.0164996,0.695167,0.815348,1.35072,-0.242292,-0.584939,-0.432053,-0.554509,-0.997478,0.817165,-0.820263,1.71024,-0.827734,-0.407035,-0.734612,0.637771,-0.271195,0.750717,0.203083,0.728161,-0.824521,-0.621648,0.824595,-0.423833,0.138543,-0.0475818,0.375111,0.562701,0.339734,-0.361982,-0.925822,-0.327399,0.105034,-0.558994,-0.794948,1.34115,0.0543368,-0.319365,-0.242241,0.56832,-0.874962,0.32722,0.0649888,0.546189,-0.144987,0.525724,-0.943139,0.103952,0.852828,0.928989,0.93669,0.920249,-0.384212,0.25583,-0.15661,0.987627,0.752632,1.68986,-0.475645,1.24669,-0.655477,-0.133764,-0.788228,-0.619626,0.749856,-0.286217,-0.721649,-0.28151,0.388377,-0.705198,0.856156,0.773394,-0.101686,0.543699,-0.888002,1.21873,-0.531947,-0.649382,0.0586374,0.897211,-0.142674,0.0876337,0.535249,0.242662,-0.662864,0.502842,-0.0885225,-0.59706,0.544139,0.74568,0.584766,1.37319,-0.657129,0.800428,-0.470003,0.688588,0.217174,-0.0893926,1.03572,-0.5721,0.134208,0.404589,0.77079,-0.819565,-0.46282,1.0698,-0.968008,0.426432,-0.642155,0.11673,-0.304555,-0.297593,-0.274692,-0.773439,0.582884,-0.127282,0.84812,-0.736086,-0.048565,0.177709,0.823735,-0.350704,0.395976,-0.704106,-0.480337,0.97494,0.652526,-0.0213846,0.0233765,0.604845,0.230024,-0.900247,0.295254,-0.0298641,-0.727129,0.878693,-0.0628679,-0.667447,-0.152546,0.302241,0.527028,0.562991,0.841206,0.73168,0.677897,0.357014,-0.399361,0.578242,0.756676,0.614091,0.0326091,0.672337,-0.751072,-0.580362,0.755263,-0.227685,-0.585335,0.409612,0.808899,0.205427,-0.0730051,-0.0356918,0.338509,-0.687193,0.950848,0.664406,-0.840417,-0.0938716,-0.977705,0.00244403,-0.813286,0.549323,-0.430925,-0.97253,0.337787,-0.744213,0.384505,0.904912,0.847472,0.149427,0.520556,-0.11173,-0.261916,0.769484,0.325044,-0.506653,-0.461926,0.739709,0.903647,-0.653076,-0.0389247,-0.0885513,0.311232,-0.700415,0.224255,0.265836,0.963991,0.379245,-0.842427,0.986286,-0.618311,-0.655714,0.535609,-0.0492353,-0.628244,-0.126604,0.206552,0.756262,-0.221692,0.0540242,-0.0943115,-0.701136,0.942294,0.643772,-0.931652,0.267338,-0.862881,-0.393578,0.00704658,-0.959234,-0.0466538,0.968122,-0.0477856,-0.735422,-0.732293,-0.823531,0.530415,-0.768303,0.555714,0.687987,-0.782017,0.937404,-0.967726,0.745549,-0.111832,-0.59597,-0.373012,-0.905088,-0.836961,0.405131,0.148738,0.0659831,0.70416,0.0910387,-0.250639,0.772508,-0.641623,-0.153129,-0.62107,0.363696,-0.112363,0.34759,0.333545,0.839205,0.597509,0.588691,-0.983801,0.127276,0.832949,0.573905,-0.176391,-0.949823,0.509438,-0.152431,0.804524,-0.599791,0.251561,-0.562873,-0.507757,0.425632,0.821886,0.630165,-0.518105,0.540959,-0.26789,0.192387,0.313301,0.0750912,-0.965553,0.692431,-0.54409,-0.125538,0.0246826,0.870936,-0.235932,-0.289231,0.37237,-0.223378,0.755717,0.132456,-0.649718,-0.434977,0.286437,0.821373,0.404353,0.0803708,-0.742658,-0.358353,0.510623,0.241029,-0.915858,0.472311,-0.640446,-0.461414,-0.202238,0.0935421,0.74067,-0.782203,-0.799574,0.602776,0.842353,-0.31906,-0.303029,-0.134814,-0.541182,1.07915,0.549341,1.08533,-0.841545,0.224148,-0.191535,-0.35533,0.84835,-0.424325,-0.796044,0.0801222,0.314738,-0.124043,0.928126,-0.394019,0.455065,-0.304586,-0.880053,1.02356,-0.67642,-0.121333,-0.291746,-0.718695,0.299788,0.61558,-1.37511,0.0240447,0.620846,0.153171,-0.81167,-1.33614,-0.771736,1.35182,-0.977627,-0.336192,-0.176639,-0.402276,-0.76854,-0.0249608,0.31126,1.24625,-1.32199,-0.65719,-1.5691,-0.255856,0.943376,-0.0801616,-0.932199,0.256289,0.336061,-0.0663169,0.468598,-1.52064,-1.41621,-0.083142,0.191051,0.716713,-1.50727,0.300977,-0.198058,0.0137233,0.81119,-0.292805,0.962732,2.87066,-0.541909,0.353954,0.512463,-0.637537,-1.13184,-0.288722,-0.813456,2.04202,0.196287,0.323714,-1.70702,1.54668,-0.136621,-1.99483,0.957672,2.77139,0.0358294,0.7165,-0.359282,-0.270926,-3.04118,-0.947846,-1.17275,0.638744,0.271034,-0.549165,-0.776083,1.28143,-0.596772,-0.562415,0.77497,2.74062,0.626939,0.366449,-1.1651,-0.780908,-0.933038,-0.184741,-0.693095,2.25499,-1.61973,-0.216612,0.605144,0.879168,0.377312,0.336246,0.796641,1.2474,-0.462726,-0.271087,-0.145257,-1.64036,-1.42192,-1.64769,-1.33587,2.05999,-1.84979,-0.609448,0.340153,0.208373,0.699778,-0.17634,-0.885182,1.8039,0.374152,-0.0992169,-1.39276,-0.343845,-1.26144,-0.763515,-1.14432,1.36818,-1.35728,-1.93769,1.32351,-0.418885,0.445399,0.916991,-0.776103,1.15004,-1.21626,-0.408625,-0.795084,-0.405054,-1.64154,-0.00156471,-1.80899,2.00895,-0.636306,-1.17622,0.58918,0.488483,-0.921031,0.908988,0.731071,2.24596,-0.617003,-0.303375,-0.611981,-0.742868,0.440407,-1.01853,-0.41297,0.773494,-1.08908,-0.494182,0.210268,1.50728,-0.129101,1.47693,0.778311,1.85761,-0.981516,-0.155221,-1.33081,-1.10604,0.0493009,0.364906,-0.752105,1.03256,-0.529343,-0.247188,1.66497,-0.0391448,0.658658,2.76281,-0.810501,1.55486,0.275466,0.0775217,0.331521,-0.345368,2.09883,0.857983,0.424279,1.2457,-1.22542,0.365862,0.967144,0.828923,-0.790348,2.38987,-0.477104,2.11906,0.707935,-0.664522,0.394026,-0.806136,0.540411,-0.40381,0.33424,-0.0738767,-0.161747,-0.247887,-0.136937,-0.245499,-0.320335,1.68193,0.640269,1.51356,-0.668647,-0.0222128,0.0887285,0.69092,0.807949,0.0562423,0.755298,0.688686,0.102421,-0.120752,-0.39015,-0.465498,-0.683594,0.754961,0.375698,1.04853,-0.744114,-0.087776,-0.954006,-1.22536,1.34567,0.488273,-0.0522341,-0.45024,0.417828,0.234764,0.0528058,-0.305436,-0.480949,-0.123734,0.432643,1.0815,-0.53189,-0.462116,-0.295034,-0.153641,1.01764,-0.707855,-0.31751,0.897628,0.758065,0.106637,-0.81881,0.641144,-0.516183,0.668288,0.726073,0.500406,0.110819,0.684476,0.0222722,-0.557784,0.314918,0.701376,0.0377301,0.642357,0.245436,-0.679474,-0.261867,0.698657,0.323705,-0.784682,-0.479588,0.922243,0.134938,0.188832,0.0442511,-0.318619,0.367017,0.604398,-0.358257,-0.283765,-0.132587,0.177678,-0.731256,0.364265,0.0883272,-0.973271,-0.933295,-0.775941,0.922214,0.0540951,-0.301111,0.172487,-0.319547,0.727478,-0.071362,0.789893,-0.924599,0.795041,0.418379,0.407196,-0.90599,0.938779,0.199012,0.228948,0.152734,-0.761627,0.928131,-0.399422,0.831368,-0.42816,0.316812,-0.318359,0.750009,0.617843,-0.984268,-0.161664,0.644946,-0.917563,0.037482,0.56716,0.136267,0.736371,-0.23518,0.816736,0.463848,0.693534,0.606629,0.547339,0.488575,0.0249958,-0.0454653,0.582585,-0.0362251,-0.846454,-0.188467,-0.883491,-0.608081,-0.260336,-0.282912,-0.776713,0.311504,-0.9661,-0.0950717,0.0615131,0.651742,-0.0793443,0.899849,0.296689,0.0030967,-0.090236,-0.136151,-0.860634,-0.326298,0.628668,0.965518,-0.863015,0.320915,0.562734,0.68489,-0.189222,-0.276386,-0.360714,-0.606288,0.551499,-0.207029,0.162421,0.668008,0.201588,0.944719,-0.596435,0.4103,0.255921,-0.582218,-0.702148,-0.682425,-0.927555,0.265229,-0.781845,0.367615,-0.718734,0.154756,-0.812149,-0.623775,0.792999,0.910042,-0.54172,0.928448,0.18215,0.89687,0.571248,0.992952,-0.548574,-0.694906,-0.660633,-0.96427,-0.0450413,0.591181,0.555454,-0.730419,0.684531,-0.77609,0.915203,-0.34481,-0.525666,0.97517,-0.225582,-0.422924,0.311294,0.415921,0.819154,0.392489,-0.638861,-0.824191,0.435807,-0.688175,-0.309303,-0.612175,-0.258498,0.131934,-1.04356,-0.00386033,-0.548197,-0.456421,-0.615812,0.465994,-0.514459,0.194053,0.141845,-0.71698,0.101941,-0.274612,-0.0721982,0.353783,1.04775,-0.146394,-0.0730804,-1.56834,-0.178814,-0.755258,1.29343,-0.242472,0.93721,-0.715699,0.696551,0.754187,-1.94381,0.616704,0.798765,0.219103,0.415292,0.638633,-0.831445,-2.35074,-1.04824,-0.299524,1.3239,-0.648447,-0.719011,-0.298517,0.467562,-0.966954,-1.18581,0.782033,0.260667,0.357544,0.484806,-0.796342,-0.819323,-2.85969,-0.756856,-0.0210197,1.57224,-0.943834,-1.12117,-0.57528,-0.00725701,-0.18169,-1.45113,-0.416394,1.74941,0.900548,0.551569,-0.0339833,-0.489105,-1.36863,0.139177,-0.791954,0.474072,-1.46976,-0.89828,0.165849,0.0552651,0.554929,-0.77943,0.745966,1.54244,-0.582088,0.203115,-0.144893,-1.6319,-1.13936,-0.163953,-0.775275,0.625861,-1.91924,0.288389,-0.289985,0.246516,0.351126,-0.410702,-0.293358,1.32351,1.2824,1.65198,-0.432416,-0.539194,-0.658408,-1.0631,-1.36907,2.67981,-0.39983,0.235023,-0.318093,0.167022,-0.903876,-0.52927,0.8056,-0.300595,-0.12188,0.83927,-0.337032,-0.00351769,-2.10302,-1.18565,-1.66567,1.38004,-1.28829,0.12246,0.991975,0.823312,0.573987,-1.35353,-0.277662,0.567683,0.320203,1.54422,0.919854,-0.559683,-0.422523,-2.2088,-2.48495,2.55739,-0.813377,-0.643831,1.67218,-1.18319,-0.458398,-2.12488,-0.542432,-0.28471,-0.47785,0.665062,0.354237,0.212069,-1.75457,-1.81176,-0.00201817,3.20301,-0.58563,-1.02104,1.22563,0.0193595,0.821276,-0.88428,0.0204713,0.688093,-1.67554,0.418436,0.729653,-0.399472,-1.64043,-0.682623,-0.253812,3.16337,-0.612454,-0.791041,1.61756,0.0456693,-0.864719,1.39425,0.449549,0.601747,-2.17701,0.501307,-0.29735,-0.875263,-0.349678,-0.574338,-0.413385,2.63802,-0.693493,-0.548815,0.769313,-0.113643,-0.852841,0.0454651,-0.00147093,0.303594,-1.23286,-1.14534,0.577152,-1.83741,0.767481,0.66944,-0.128197,0.496036,0.251591,-0.41371,0.910646,-0.0259226,-0.181795,0.0518031,0.90278,2.94655,-0.455648,-0.907787,-0.770819,-0.463112,0.290942,0.482564,0.678447,0.445468,-0.591116,-0.380688,1.20112,0.924581,0.651186,0.559807,0.861542,2.98724,-1.15742,-0.0585668,0.478074,-1.81703,0.518433,1.11795,1.40006,1.13229,-0.121431,-0.536167,-0.740394,0.24489,0.241535,2.64448,0.900829,3.01731,-0.577228,-1.75126,-0.452692,-0.751801,0.222781,0.749945,0.938288,0.70012,-0.464574,1.10578,-0.57586,-0.757622,0.587722,1.22457,0.217535,1.47984,-0.558859,-1.19597,-0.508433,0.0848695,1.30467,0.417895,1.53708,-0.168843,1.19096,1.02512,0.232396,0.251188,0.171551,1.31317,-0.80978,1.99417,0.744595,-1.12972,0.0400802,-0.730526,1.3739,0.88505,-0.128088,0.423269,-0.0704594,0.370576,0.621613,-0.612792,0.500033,0.455806,-0.649095,1.59606,0.742192,-0.512533,0.528457,0.373602,1.00629,-0.00451242,-0.527443,0.0825396,1.3318,1.18715,-0.708493,-0.288028,0.388587,-0.204795,-0.111345,0.329813,0.230247,0.818474,0.582047,-0.371912,0.209329,0.619968,-0.625662,0.805711,-0.355819,-0.463821,-0.840456,0.926361,0.604119,-0.506764,0.910848,0.392976,0.277817,0.475995,-0.437046,-0.234653,-0.775494,-0.179822,-0.671562,-0.797263,-0.188683,-0.0502658,0.385513,-0.928225,0.754982,-0.769177,0.272139,0.00822173,-0.882353,-0.133328,0.585269,0.229735,-0.49558,0.992972,0.147813,-0.0290921,-0.594898,0.31089,-0.0584553,1.00142,0.823018,-0.150638,0.386806,0.101623,-0.675999,0.950064,0.954834,-0.451521,-0.227668,-0.716397,-0.252115,0.468234,0.23042,-0.906232,0.552722,-0.0145975,-0.674669,-0.175139,0.993686,-0.557022,0.691533,0.578955,0.72237,-0.80943,0.571927,-0.129731,0.161051,0.96154,-0.818841,-0.896991,0.955271,-0.995824,-0.0476292,0.387461,0.1058,0.276373,0.292141,0.0908334,0.826159,-0.935497,0.343345,-0.427447,0.532706,-0.422438,-0.314677,0.0829295,0.561925,-0.00816581,0.910289,0.379449,0.435327,0.634471,0.176078,0.248341,0.792405,-0.294947,-0.975127,-0.144357,-0.231307,-0.785624,0.0509199,-0.356506,-0.786482,-0.952246,0.963513,-0.125738,0.289579,0.458441,-0.526702,0.2957,0.234054,0.720976,0.616933,-0.351727,-0.659675,-0.556717,0.925569,0.865547,0.361345,0.604245,0.411915,-1.05101,0.462292,0.125911,1.03615,0.580394,0.0474753,0.772751,-0.976453,-0.0198521,-0.854099,0.420116,-0.487081,-0.63723,0.107083,-0.948746,0.700546,-1.97034,0.773116,0.286013,0.976029,0.746011,1.08093,0.0599518,0.129935,-2.4638,0.544608,1.04651,0.484744,0.344022,0.298628,-0.220579,0.805846,-1.44119,0.937801,1.19421,-0.536328,0.933453,1.17809,-1.06063,-1.4658,-0.292036,0.455791,0.52644,-1.53101,0.607075,-1.08318,0.416192,0.66596,-1.26981,-0.929922,0.326968,0.263103,1.60886,-0.0687972,-1.76198,-1.31247,-1.04781,-1.09194,0.857683,-0.601724,-0.430517,-0.171463,-0.231303,0.628175,-1.70545,-0.032303,-1.0578,-0.252067,0.472804,-0.629933,-1.8945,-2.71209,-0.790413,-0.773399,-0.445298,0.114837,0.437798,-0.849546,0.567084,0.0377361,-1.77056,-0.330456,1.91683,0.186783,0.128069,-0.392647,-2.11569,-1.15443,0.355575,-1.62877,0.684995,-1.19413,1.85205,-1.42543,1.76382,-0.159577,-0.995776,0.803706,0.332342,0.65003,-0.793801,-0.668549,-1.34125,-1.22774,0.660989,-1.46974,1.04589,0.271417,1.3259,0.838981,0.78443,-0.599144,-1.56918,0.904829,-0.326585,0.778381,1.08406,0.0285544,-0.854191,-1.96589,1.27112,-2.68046,2.02111,0.881043,-0.67834,-0.981615,-0.647844,0.591672,-1.06054,0.592955,0.235309,-1.16935,0.368571,0.948512,-1.12038,-0.118078,0.059924,-2.01122,2.68213,-1.09406,0.764171,1.34791,-0.500635,0.799323,-2.1843,0.6302,0.204424,-2.41173,0.552269,1.21957,1.16854,0.0195915,0.0573536,-0.711391,2.8604,-0.40251,-0.208772,2.40488,-0.685213,0.775228,-2.24748,-0.506995,-1.2865,-3.80089,0.0446232,1.44819,-0.649405,0.175075,-0.538238,0.244727,2.99187,-1.6469,0.759375,2.05756,0.372766,0.754871,-1.33226,0.450857,-0.105797,-5.26851,0.2483,-0.708032,-0.67372,-0.827171,-1.5007,-0.145379,4.18196,0.873636,-0.0794858,0.886693,1.18002,-0.688584,-0.943135,0.788447,-0.556196,-4.83106,0.162272,-0.878871,-1.73352,0.307805,1.44976,-0.166154,5.07905,0.610178,-0.185128,0.398431,1.53014,0.928103,0.336177,0.883192,0.818123,-2.58041,-0.927847,0.0122487,-3.4562,-0.334686,0.882548,-0.875959,2.98213,-0.243938,-0.341302,1.20878,0.692993,0.283107,0.716959,0.208365,2.04647,-2.32356,-1.14959,-0.0233458,-2.59593,-1.26988,2.11281,1.47306,2.51477,0.42719,0.252725,0.444917,0.46783,-0.214267,0.653869,-0.21484,0.171383,-2.40664,-0.486025,-0.399108,-1.7254,-0.572793,1.34912,0.907867,1.934,-0.280132,-0.53523,-0.459678,-0.615406,-0.768308,2.05783,0.61419,0.514833,-0.603936,-1.14105,-0.389739,0.0912126,0.531894,1.29266,1.2664,-0.0500199,-0.417066,1.48948,0.28394,0.169868,0.751511,1.8368,0.426855,-0.434112,-1.98368,-1.50937,-0.547912,0.679733,0.588163,1.85192,1.94128,-0.569747,0.966641,2.65154,-1.1639,-1.49124,0.319443,1.4888,-0.0758502,-0.193197,-1.40005,-0.800543,-0.6735,-0.149264,1.00958,1.82424,0.867534,-0.355748,0.496866,1.13269,-1.21081,-1.11823,-0.0560989,0.0764471,0.204099,-0.0531362,-1.18867,0.0849026,-0.54922,1.65907,1.19507,-0.585466,-0.414745,-0.593364,-0.675331,1.20819,-0.260243,-0.929585,-0.0705191,-0.638507,-0.615441,-0.182168,0.888938,-0.00978894,0.00698435,0.144497,0.0234765,0.931787,-1.07426,-0.656782,-0.16673,0.354299,0.317342,-0.471872,-0.236274,-0.47132,-0.655952,-0.21297,-0.617174,0.048441,-0.431013,0.469491,0.271544,-0.186285,-0.372579,0.513848,0.661762,0.950901,-0.240331,-0.682986,0.903229,0.101365,0.566564,0.859444,-0.784001,-0.36416,-0.428047,0.100379,-0.435635,-0.39999,0.428082,-0.0100102,0.279522,-0.230139,-0.63738,-0.936326,0.304246,-0.289953,-0.142032,0.683854,0.732777,0.42203,0.232564,-0.0105783,-0.768637,0.845963,-0.681302,0.826267,0.651325,0.0400497,-0.649349,0.554554,-0.857475,0.917215,0.413998,-0.641505,-0.44696,0.985953,0.519349,0.10947,-0.414499,-0.0525686,-0.900115,0.874963,0.716716,-0.53181,0.926898,0.0209589,0.178238,-0.122353,-0.295188,-0.113379,-0.791011,0.952449,0.928735,-0.561723,0.78339,-0.772599,-0.735239,0.403978,0.260098,-0.373838,-0.00986086,0.298178,-0.467609,-0.888055,0.764923,0.0784483,-0.340931,0.395427,-0.711646,-0.0265757,-0.795558,-0.898692,0.15057,0.919529,-0.203954,-0.0579408,-0.0127906,0.758562,0.561469,-0.369471,-0.135575,0.856931,0.830919,0.349352,-0.758968,0.438233,-0.208934,-0.849577,-0.0741268,-0.46822,0.237039,1.20505,0.145173,0.147354,-0.782684,-1.23348,-0.27053,0.276142,-0.279268,0.745302,0.857824,-0.450919,0.116609,-1.32034,-0.36297,1.02747,0.541035,1.18934,-0.541154,-1.16294,0.477447,-2.91782,-0.422559,1.42974,0.485241,1.28243,0.457827,-1.11894,-0.431737,-0.860973,-0.672108,-1.33499,-0.0279973,0.244344,-0.443019,-0.533726,0.731518,-2.57767,0.995219,0.291608,-0.0807153,1.70822,1.24275,-1.2522,-0.519768,-1.19052,-0.793446,-0.374299,0.814901,0.378063,0.334154,0.678968,0.323071,-2.56417,-0.409953,-0.0640452,-0.334966,0.532638,1.10747,-2.27887,-2.44919,-1.18971,-0.720739,0.259017,-0.144075,0.223576,-0.765265,-0.869645,0.272493,-1.85375,-0.431341,0.319889,-0.779076,0.275562,0.547764,-2.67328,-1.11119,-0.712118,-0.40235,1.17542,0.565136,-0.37696,-0.634991,-0.427768,0.692574,-0.0457987,0.0240915,1.2144,0.668171,-1.02178,0.452591,-1.17838,-2.04199,-1.02963,-1.61548,0.0136103,0.115912,-0.074534,-0.312511,1.21832,0.927704,-0.685892,-0.133143,-0.655399,1.17988,-0.52915,-1.24883,-0.672625,-1.29417,0.118804,-1.83907,-0.265071,0.965258,-1.05066,1.61633,-1.5278,0.877278,-1.63112,0.456031,-0.291617,1.35168,-0.946544,0.164935,-2.32701,-0.31365,-0.00505964,-1.92379,1.43853,1.74616,0.346478,1.49464,-1.17877,-0.0137187,-1.48427,0.70912,0.525412,2.90231,-0.0690113,-0.362377,-0.623083,0.619592,0.331105,-3.47546,1.22495,1.81649,-0.46926,4.60479,-0.822623,0.758197,0.180027,-0.854555,-0.807329,2.58144,1.17899,-0.976296,1.30767,-0.0574218,-0.5102,-0.22249,2.64739,0.675064,-3.18237,6.01323,-1.03674,-0.292546,-0.370721,-0.092637,-0.694981,1.3564,2.52803,-2.03084,-0.544502,0.293285,0.296446,-0.878756,0.392942,0.685475,-1.94158,3.71259,1.18609,0.456591,-0.281084,0.944189,-1.79965,2.2259,2.55469,-0.217507,-1.93739,-1.98151,-0.356772,-0.370092,-0.384186,1.22903,-0.331413,2.49302,0.794075,-0.715393,-0.254694,0.382001,-1.04992,0.809133,2.15895,-1.08072,-1.91459,-0.380794,-0.575249,-0.219069,-0.577872,2.23547,1.44569,0.466824,0.34781,0.445125,1.44988,0.300429,-2.04019,1.1022,0.638301,-1.43792,-2.21561,-1.20942,0.635839,-0.0455204,1.74892,0.961623,1.19466,0.695619,0.591824,0.896056,1.26194,-0.882552,-0.667598,0.92396,0.569907,-1.31967,-1.56488,1.04861,0.396275,-0.467144,2.8375,0.204748,0.402853,-0.415231,1.27754,-0.104716,1.78993,-0.0470353,-1.84967,0.579399,-0.817188,0.645739,0.204994,0.252954,-0.250646,0.373073,1.44333,0.868256,0.763062,-0.0272685,-0.118444,-0.461096,1.42719,-0.194137,-2.79245,-0.671774,-0.0570694,-0.738372,0.182058,-0.135601,0.38835,1.58769,0.706206,1.23861,0.924456,-1.84028,0.685696,0.769316,2.26869,-0.314346,-2.96354,-1.8036,-3.1571,-0.871093,1.23492,0.0155353,1.65974,0.80863,-0.0268071,0.0660592,1.47978,-0.432173,-0.191581,0.76039,2.2323,-0.656469,-2.65205,-2.01087,-1.26203,-0.858199,2.27765,1.60967,1.53552,0.800274,0.887814,1.2499,0.878103,-0.917273,-1.95392,0.372374,2.44873,0.593559,-1.21839,-1.22184,-0.6216,-1.52499,1.08287,2.56646,0.992323,0.479807,0.136112,-0.169405,2.46473,-1.19801,-1.75498,0.975255,0.155265,-0.497528,-1.21356,0.730783,0.644057,0.130736,0.489726,0.067456,0.380762,-0.837359,-0.579757,0.54389,1.61358,0.496423,-1.83437,0.435864,0.151563,0.676729,0.68644,0.569348,0.920183,-0.653634,0.54286,0.422441,1.0119,-0.542039,0.517751,0.461409,-0.0278759,0.471662,-0.120992,-0.00855863,0.963481,0.789695,-0.0167823,0.698859,0.277193,0.718995,-0.381157,-0.47506,-0.994614,-0.0722208,0.922782,0.536238,-0.435047,-0.399999,-0.0509344,0.361935,-0.711003,-0.135375,0.0747347,-0.882569,0.303501,-0.329388,0.536524,0.296352,0.0187081,0.107771,-0.341789,0.526802,-0.408434,0.995246,-0.481749,-0.422407,0.740998,0.497117,-0.714738,0.0606184,0.213522,-0.128378,0.58596,0.223961,0.747396,0.468439,-0.235781,-0.916137,-0.918189,0.735411,0.351105,-0.630296,-0.442001,-0.479573,-0.546789,0.913927,0.252733,-0.865532,0.202515,-0.745047,0.137613,0.860822,0.557869,0.729198,0.897156,-0.762215,-0.717631,0.641164,0.192033,-0.403604,-0.330052,0.215868,0.776103,-0.4649,-0.811192,0.185035,0.383313,-0.0409641,-0.178185,1.0876,0.234483,-0.430845,-0.950292,0.300631,-1.43357,-0.286599,0.426487,-0.291073,1.20562,-0.352599,-0.476219,0.457395,-0.881958,-0.592456,-0.0456112,-0.171553,0.424546,-0.0615633,0.112252,-0.585282,-2.87921,-0.501869,1.37169,0.639552,1.85098,0.582749,-0.275689,-1.15822,-0.680427,-0.553325,-1.62735,0.90097,1.24007,-2.29871,-1.8926,-0.528219,-1.97344,0.770114,0.997947,0.53837,0.839138,1.11752,0.0603518,-1.92665,-1.33092,0.212378,-1.87563,0.0282251,0.990564,-2.08355,-0.752828,0.724872,-1.08721,-0.485418,0.370318,0.0852433,-0.373258,1.29301,-2.15154,-1.17119,0.22005,-0.881461,0.683784,0.593291,0.473838,-1.48403,0.159057,-0.773815,-1.18151,0.909137,-1.44714,-1.01124,-0.355881,0.377244,-2.26846,-0.363961,0.77719,-0.14517,0.352285,1.25816,0.176442,-0.5949,0.057778,-0.656226,-0.470618,-0.868731,-0.150316,1.70849,-0.709118,0.640966,-2.29254,-1.85151,0.244057,-1.17832,-0.376411,2.04152,-0.949439,0.266726,1.29401,-0.33675,-0.0953979,0.84905,-0.532693,1.74823,0.873762,0.456334,-1.73463,-0.432285,1.31182,-1.72864,0.731129,1.1677,1.13587,-0.405386,0.583761,0.316216,-1.6957,-0.286361,-0.691077,2.64865,-0.59311,-0.131197,0.185051,-1.38546,1.01281,-1.11023,-0.511051,1.01353,2.79819,1.71672,-0.36742,-0.465425,-0.93477,0.82407,-1.7346,4.28764,-1.59106,-0.66148,-0.64875,-2.80389,0.249128,-2.96883,-1.49846,2.83574,1.67384,3.57865,-0.014091,0.0487942,-1.50815,0.946526,-2.2346,2.88415,-2.18533,-0.637609,1.52182,-0.540626,-0.956067,-1.66055,0.465947,2.24051,-0.189363,6.65835,1.02789,0.352264,0.970245,-0.592694,-0.796114,4.24912,0.759607,-2.23804,0.809382,0.000117815,-1.40005,-2.6245,1.14048,0.150616,-1.35236,6.43006,0.529668,0.443325,1.13388,0.855649,-3.21162,5.67989,3.2549,-2.3561,-1.9514,-1.92976,-1.02709,-1.12482,0.563001,1.32499,-0.356722,2.78907,1.17469,-0.0327928,-0.245066,0.454176,-2.61809,5.35564,3.95299,-1.38951,-1.10876,-0.924237,-1.20389,-0.897829,-0.450325,2.2704,0.534872,2.74143,0.711131,-0.0560338,0.427796,-0.555212,-1.43492,4.50804,0.731357,-1.4673,-1.06882,-0.358006,-0.737003,-0.120118,-0.196236,1.73759,1.91261,2.72344,0.989014,0.522279,2.44951,0.86922,-2.60241,3.99197,-0.536791,0.5392,-0.782706,-0.989479,-1.18582,0.128901,0.734505,2.59784,1.87593,1.75648,0.0417637,-0.967757,1.71866,-0.0882661,-4.05799,3.48799,-0.240307,0.550375,0.471337,-1.04219,-0.172584,0.801039,1.40135,1.21758,1.32496,0.111269,0.075713,0.165594,1.42631,0.296207,-4.82425,2.04873,0.879553,1.20009,0.314386,0.0890074,-0.0936529,0.116153,2.44398,1.64327,-0.298213,-0.176679,0.322844,-0.37298,1.73093,0.353276,-3.82229,0.485028,0.650086,0.542432,0.830512,1.32335,0.545903,-0.775098,2.90586,2.07669,1.41887,0.842984,-0.831686,-0.880266,1.67364,0.835931,-3.59197,-0.231488,-1.75393,-0.0676372,1.76666,0.873682,2.47067,-0.683367,0.585481,-0.686461,0.887272,-1.89472,-0.994524,0.539457,3.33811,0.625793,-1.63593,-2.10164,-1.71522,-1.93751,1.91071,1.84309,1.86728,-1.33573,2.8219,1.53986,2.38175,-0.990455,-1.66996,-0.469879,1.64556,0.988671,-1.56829,-0.84855,0.430266,-0.763648,1.78707,1.95774,1.93508,-1.06273,1.00795,0.838148,1.47482,0.312866,-3.82567,0.82281,1.41655,0.602549,-1.34976,-0.0579927,1.06359,-0.995803,2.51439,-0.103091,0.103635,0.515077,1.03883,-0.131479,1.00812,0.605995,-1.36288,0.356871,0.71131,0.355088,-0.259995,-0.600433,-0.233579,-0.159286,0.511885,-0.412238,0.35023,-0.364838,-0.0426888,0.98938,-0.497046,0.0575091,0.195696,0.245869,-0.35695,0.903432,-0.115196,-0.475227,-0.506693,-0.39445,-0.236463,0.396111,-0.775922,-0.436627,-0.772752,-0.184922,-0.893757,0.276793,-0.851708,0.466654,-0.356008,-0.0223439,-0.901182,0.306592,0.901579,0.601715,0.877997,0.267758,-0.968917,-0.0956645,0.1021,-0.938053,0.94679,-0.241064,0.307843,-0.408278,-0.400838,-0.788103,0.114046,0.164611,-0.196383,0.949397,-0.440402,0.0792128,-0.570509,-0.362819,0.81329,-0.552608,0.94645,-1.0344,0.926367,-0.429429,-0.157844,-0.984055,0.922024,-0.177456,0.539871,0.793656,-0.830084,0.704374,-0.320201,0.273351,0.396152,-0.328872,-0.903255,-0.104442,0.281378,-0.304714,-0.6579,-0.650631,1.13141,-0.551828,-0.559868,-0.571042,0.0864608,-0.526416,-0.373383,-0.0539843,-0.479164,0.451465,0.527067,-0.535754,0.288443,0.972258,-2.19536,0.461964,0.637355,-0.0199606,1.9583,0.338551,-1.0519,0.16262,-1.23961,0.978669,-1.61799,0.307476,0.765235,-0.149522,-0.561642,-0.777359,-2.88408,-0.0744498,0.158824,-0.717156,1.76416,0.462137,-0.398797,-0.881278,-1.17954,-0.996452,-0.877438,1.35984,0.891095,-1.6771,-0.568829,-0.972405,-2.54736,-0.862143,-0.247486,0.649619,1.36413,0.613115,-0.43111,0.0354826,-0.409544,-1.1284,0.79235,2.20485,1.02304,-1.45325,-1.27654,0.890333,-0.563701,-0.588675,-2.01557,0.240206,1.15659,2.83903,-0.955886,-1.00143,0.206112,-0.4667,0.764967,1.37676,1.61754,-2.06064,-0.0163758,-0.850519,-0.490478,-0.116105,-1.36564,1.89375,0.506745,2.05951,-1.50711,-1.03024,0.234357,-0.211992,0.353218,2.42206,-0.514075,-1.37708,0.956096,0.884159,-0.208158,0.21715,-2.05315,1.64744,-0.28131,0.503145,-1.19859,-0.885254,1.11518,-1.38197,0.248477,2.04309,-1.61865,-0.224932,1.27325,0.458989,-1.30838,0.10655,-1.3467,0.908386,-0.680315,0.997281,-0.437814,-1.49514,1.97405,-0.544306,0.288863,3.51458,0.00723169,-0.305493,2.02693,0.430508,0.439338,-0.121661,-2.29875,3.01698,-0.21329,0.94212,-0.165243,-1.25708,0.925811,-2.6951,0.394338,2.51376,0.190487,0.177886,0.429246,-0.339511,-0.974567,-0.106878,-2.23895,2.999,-0.723408,-1.04348,-0.366557,-1.5151,1.95884,-2.837,-1.24047,2.94885,0.500022,3.0051,0.642686,0.352709,-4.0264,0.940199,-0.67788,2.01071,-1.10727,0.0840119,1.18304,-2.0857,0.0236486,-3.59503,-1.49044,3.53358,0.450947,6.77134,0.760263,0.528161,-2.74778,0.0778901,-1.31182,2.7913,0.569912,-0.0938932,1.9892,-1.91422,-1.43114,-1.51627,0.35843,1.55702,0.14303,5.52291,2.16383,-0.619687,-1.72636,0.543216,-0.484145,3.9244,2.61019,0.0730815,-0.445567,0.0143021,-1.22769,-1.11944,0.765773,0.729142,2.17294,2.76945,2.50538,0.293613,0.202301,-0.058079,-2.27055,3.71012,2.99954,-1.34919,-0.360218,0.634091,-0.647341,0.92791,0.0121214,0.125088,1.784,1.18183,2.17403,0.184425,-1.90417,0.113779,-2.19899,1.48728,1.07066,0.763865,0.592441,0.137207,0.358945,1.30905,-0.472237,0.329772,1.3387,1.88449,2.11743,-0.134043,-0.0468269,0.0710093,-5.66978,1.27808,-0.199719,0.0401781,0.70432,-0.954087,0.653335,0.415662,0.2003,0.690596,-0.988349,0.297223,1.03556,-0.554152,-0.350085,-0.469942,-5.99923,1.21994,1.96778,-0.524657,0.752051,-0.0763147,0.896976,-0.887196,0.842934,1.07225,0.403772,-0.890602,0.83221,0.138075,0.0132684,0.790054,-5.51691,-0.195589,-0.0559906,0.366704,1.75004,-0.891143,-0.230616,-0.773905,-0.643779,0.635669,1.78695,2.32585,-0.55812,-0.91172,-0.640812,-0.510927,-3.9415,0.351916,0.480476,1.10275,1.42508,0.604326,1.98355,-1.5746,-0.0783658,-0.103591,0.294164,0.633334,-1.28013,-0.759861,-0.239218,-0.77988,-4.42264,-0.314286,0.365245,0.311532,0.824773,0.719733,0.878019,-1.04941,-0.355113,1.11786,0.741227,0.377084,-1.42112,0.145805,-0.451962,0.298998,-3.08261,-1.72583,-1.19828,0.164384,2.11153,2.84308,3.92538,-1.77449,1.91255,0.5804,2.42816,0.0677866,-1.43281,-0.804096,0.685064,0.144705,-1.58455,-1.90552,-0.193071,-1.08703,2.81936,2.16598,1.22027,-0.210428,0.732693,1.41264,2.7619,-0.0769756,-3.13342,0.984133,1.54954,0.77722,-1.00267,-1.91327,1.08386,-1.80185,1.0215,1.51579,0.26454,0.413762,-0.072537,-0.515429,1.91871,0.569429,-2.00698,-0.690534,-0.325256,0.468314,0.0368614,-0.600389,0.422249,-0.864256,0.279102,-0.952823,-0.587036,0.462372,1.20973,1.09645,1.32291,-0.243258,0.683678,0.48255,-0.687124,-0.213017,0.77135,0.912483,-0.0604026,-0.721257,0.604919,0.720447,-0.954905,0.806304,-0.51011,-0.0415349,-0.0266971,-0.457707,0.251488,0.26589,-0.991706,-0.448843,0.894172,0.204231,-0.0511097,-0.0961112,0.205902,0.224168,-0.730736,-0.104041,0.205889,-0.951045,0.420196,0.171601,0.531578,0.720012,0.838295,0.323855,0.636349,-0.0744882,0.625099,0.256054,-0.37523,0.719821,0.0612331,-0.343159,-0.358721,-0.98532,0.227137,0.845243,0.285407,0.205158,-0.738225,0.178844,-0.606145,0.472915,-1.09293,0.79392,-0.346827,-0.660852,-0.725713,0.861213,-0.931044,1.01393,0.12889,0.754631,0.755473,-0.00831795,-0.385042,0.318217,1.14627,0.4824,-0.430206,-0.0244398,-0.372164,0.263981,-0.190536,0.288762,6.43954e-05,-0.449437,0.758362,-0.533071,0.395979,0.699985,-2.43293,0.989332,0.45545,-0.193301,1.31788,1.77418,-0.825916,-1.38096,0.212563,-0.147652,-2.09826,0.305355,0.532224,-0.17875,0.0568619,-0.960564,-1.43714,0.573846,0.444418,1.25532,-0.562211,2.10222,-0.415564,0.95923,0.1357,-0.396583,-0.251538,0.0373247,0.736929,-0.932988,0.185684,0.559187,-0.883157,-0.0676301,0.0955037,1.15023,0.341218,1.00499,-0.815499,0.862483,0.841769,-0.192751,-0.0318756,2.08238,-0.298989,-1.26821,-0.0780029,0.686024,-0.598276,-0.201089,-0.845044,0.364655,0.517877,2.28421,-0.511118,1.91244,1.09367,-0.0294483,0.961219,1.34947,0.127167,-0.562803,-0.87351,0.706537,0.0358433,0.755558,-2.30769,1.69667,1.50677,2.44892,-1.38657,0.813213,0.594804,-1.50979,0.500482,1.98684,-0.794073,-1.33705,0.242508,0.0960417,1.27389,-0.95724,-1.05692,2.39173,-0.823437,2.04569,-1.08505,0.375599,0.896664,-1.81961,-0.162503,1.13964,-0.795108,-1.35329,0.142841,0.257476,0.590508,0.125092,-0.727855,2.14898,-0.103559,1.08754,-0.102506,-0.753379,1.84477,-1.32202,-1.95026,0.437152,0.811613,-1.17439,0.145539,-0.321345,1.64347,-0.412951,-1.59772,2.54707,-0.239636,1.21386,0.0934992,0.0847282,2.28708,-2.39135,-0.970049,0.742733,-1.04404,-0.124114,-0.836054,0.797692,-0.749414,0.75,-0.237735,1.42234,-2.64574,2.46232,0.628643,1.98048,1.6086,-3.17819,-2.4358,-0.0995275,-0.213969,2.2374,-0.985774,0.915373,-2.64492,0.0330881,0.866993,3.0919,-3.16214,3.22646,3.41963,2.60326,1.36644,-3.05276,-1.57228,-1.19547,1.95085,6.41961,0.89916,-0.877223,-5.21521,0.318814,1.94547,5.04711,0.985378,2.89106,2.59312,2.04996,-0.657252,-0.20948,-0.965372,-1.78906,3.33567,3.98144,0.786925,-0.485253,-4.296,0.551355,0.968804,3.59367,3.78035,1.51819,0.0908508,-0.533834,-1.00813,0.244371,-3.08354,-1.1584,3.17126,1.43051,1.75535,-0.0701691,-3.12524,-0.799612,-3.46922,1.51777,2.58954,1.01979,-0.491529,-1.38629,0.089563,1.07012,-2.05587,-1.1355,1.58022,0.00632187,0.583369,0.558729,-4.8849,0.925604,-4.24305,-1.48083,0.338133,0.860907,-0.672532,-0.805322,-0.0543371,-0.526399,-1.31172,0.045443,1.77752,0.327918,0.208466,-0.809578,-5.1935,0.1651,-4.75803,-0.928454,1.62554,-1.0132,1.04115,-0.139962,-1.37952,-0.910259,-3.62662,0.171507,0.288142,-2.07391,0.34606,0.497577,-5.77714,0.418526,-4.75827,-1.40242,0.664239,0.446282,1.23295,-0.232874,-0.821579,-0.495387,-1.58149,0.602866,0.426807,-0.802876,0.991439,0.455912,-4.49173,-0.386347,-4.22442,-2.64823,0.766383,-1.68684,2.02797,-0.251394,0.402962,-1.11156,-2.05567,-0.299121,1.00855,0.380864,0.0904853,0.466941,-5.60368,0.370962,-4.57191,-1.52384,0.100951,-0.113873,2.43798,0.0104074,1.45347,-1.27438,-0.647858,0.0181965,0.538806,-0.430911,-1.85105,0.0097301,-3.44973,-0.0580402,-3.73422,-0.684816,0.938169,-0.0432791,2.29861,1.14869,0.939351,-1.79991,-0.582075,0.929459,0.681752,-0.187079,-0.723915,0.844319,-3.25487,0.379531,-4.02321,-1.65486,-0.144776,-0.843162,3.15731,3.41372,1.66853,-0.503353,1.04817,0.324798,0.373255,0.333377,-0.1116,-0.916883,-0.651164,0.636602,-3.16493,-1.53915,0.427272,-1.70428,3.16406,1.23851,0.812357,-1.41638,-0.0554819,-0.661094,1.90616,1.26229,-1.77652,-0.86714,-0.254601,-0.240083,-1.76123,-0.720975,0.574993,-1.27253,3.68113,0.919388,-0.421616,0.739355,-0.137829,0.0631047,1.16412,0.365567,-1.71982,-0.332201,-0.649422,0.354398,-1.14496,-0.614488,0.858897,-0.565416,1.053,-0.700161,0.094351,0.162434,-0.56186,-0.298062,-0.410269,-0.469186,-0.964404,-0.458199,-0.0201204,0.404085,0.572602,0.721109,0.948305,-0.509736,0.308386,-0.828102,-0.493362,0.790147,0.0835473,0.267093,-0.654899,1.03933,0.876225,-0.558351,0.265282,-0.955966,0.00489261,-0.108628,-0.170892,-0.91912,0.127891,0.827366,0.196121,0.394477,-0.666585,0.337798,0.535417,-0.0277871,0.879723,-0.563772,-0.750428,0.547629,-0.828636,-0.660256,-0.760833,0.489772,-0.537273,-0.225435,0.299424,0.452695,-0.958126,0.576999,0.39368,0.907682,-0.971093,-0.371758,-1.20527,0.0260513,0.530611,-0.104442,-0.111201,-0.120894,-0.31099,-0.738291,-1.02777,0.0229827,0.3651,0.624286,1.1467,0.390616,-0.926657,-0.626153,-0.423877,-0.805655,-0.0364308,0.918245,0.665358,0.730863,-0.874095,-0.377863,-0.574478,-0.842502,-0.809,0.933166,-0.392188,-0.643717,-0.564967,-0.82124,0.398664,-0.885211,0.172397,0.282998,-0.237691,1.88897,-0.114204,0.382471,-0.772573,-0.438243,-1.34908,-0.0170242,-0.126987,-1.42039,-0.522168,0.148595,-0.399409,0.827194,-0.637407,0.283752,-0.190177,1.39741,-0.272038,2.77611,-0.0900224,0.567841,0.341877,0.0843577,-1.24205,-1.67407,-0.486319,0.679573,-0.647965,-0.854452,-1.53196,1.9735,1.30814,1.84499,0.217377,3.53088,1.90514,-0.991116,1.21182,2.01813,-0.431571,-1.04912,-1.09253,0.12409,0.739259,0.563256,-0.471003,1.52257,-0.0731456,0.902017,-0.503626,3.4597,1.32309,-0.921724,1.47708,1.16767,-0.260119,-0.332288,0.309074,-0.334043,1.55092,-0.690126,-0.144795,1.24393,0.152276,1.97195,-0.108323,3.61905,3.15742,-0.978137,1.71819,1.15973,-0.651916,-2.37203,-0.770905,0.603201,2.28932,-0.360853,-0.798578,1.46777,-1.02505,1.41361,-0.603785,3.87436,1.99123,-1.49411,1.2771,0.56389,-0.27468,-1.8968,-0.121654,-0.511675,1.6156,-0.173445,-0.935321,1.98127,-1.69536,1.36514,0.917727,5.25425,3.64061,-0.411886,1.81794,0.386075,-1.06811,-1.89174,-1.03754,-0.944523,2.39858,0.398775,-1.17477,1.1943,-2.38665,1.06995,-0.940724,6.17398,2.90374,-0.694605,0.269552,0.458309,0.0927591,-1.80847,-2.24322,-0.213479,1.05678,-0.0479044,0.0963846,1.27744,-4.3244,1.45119,1.13216,6.55931,1.4889,-0.958947,-1.89186,-0.97548,-0.730396,0.44715,-1.68499,-0.899693,-1.78615,-0.0050765,2.75692,4.74775,-1.78055,1.97516,1.69262,8.46297,0.688615,-0.957674,0.0874636,-2.41357,1.75826,4.07155,-1.99068,0.533692,-5.45365,-0.484658,3.31814,4.74466,2.65849,1.1908,1.66416,4.71245,0.9721,1.20659,-1.05663,-2.23994,2.81083,3.36653,-2.13129,-0.795074,-6.37592,0.288289,-0.259224,0.724504,3.43829,2.20379,-0.304527,-0.595813,-0.527021,3.49935,-4.15542,-0.38911,2.03883,-0.274668,-1.77285,-0.442839,-6.45643,0.49946,-2.79584,-1.20995,2.32199,1.04378,-0.367874,-1.51101,-0.92625,1.24987,-3.27504,0.0416279,1.81083,-1.34388,0.507061,0.856861,-8.49192,-0.861669,-3.64697,-1.21263,0.427105,-0.0448154,-2.10497,1.12533,-0.159639,-0.982164,-3.7695,-0.31296,1.45328,-0.353792,1.32536,0.631967,-8.98322,-0.512297,-3.71793,0.0334551,0.94029,0.601904,0.224816,0.403999,0.290336,0.0882735,-3.79011,0.0422897,1.37005,-0.314869,1.0953,-0.246265,-6.99248,0.0758873,-4.48299,-0.776103,0.853787,-0.395271,1.28986,0.650183,-1.20831,-1.18465,-3.17753,0.270331,-0.799629,0.110005,0.457511,0.12508,-7.79819,-0.610295,-1.65469,0.105108,1.06742,-0.273389,0.69752,0.0704662,-0.795489,-1.21344,-2.19395,0.681923,1.31241,1.31579,-0.450909,-0.0594486,-6.96322,-0.451272,-1.96624,-0.244825,0.296348,-0.00722101,1.10899,0.194391,1.43666,-1.32889,-1.88237,0.0187709,-1.20514,-0.882501,0.318364,-0.646475,-5.32602,-0.13729,-3.29711,-0.530036,1.58043,-0.591465,0.908534,2.44655,1.62416,-1.37626,-1.8873,0.12086,-1.59898,-0.553506,0.796502,-0.013659,-4.92129,-0.170213,-2.29094,-1.54115,1.21527,-0.489646,3.09819,2.34858,1.38986,0.0842236,0.863286,0.526394,-1.07912,1.28158,-0.147466,0.357959,-2.16277,0.105818,-3.28197,-1.95086,0.536617,-1.05869,4.59748,-0.410836,0.231752,-0.0291285,0.669045,0.633588,0.539931,0.109126,-2.28166,0.0032779,-0.0268236,-0.95884,-0.627444,-0.308162,-0.349962,0.0415683,2.87883,0.394423,0.248739,-0.00560705,-0.261752,1.24385,0.717039,-0.442493,-1.15225,0.675614,0.34163,-0.00116672,-1.22161,-0.54653,0.161128,0.783849,0.351739,0.922356,0.24973,0.389585,-0.109495,-0.68643,0.848655,0.224979,-0.409853,-0.276893,0.191326,-0.13567,0.735864,0.455643,-0.644363,-0.553468,-0.204619,0.581955,0.424574,0.389043,0.168936,-0.69704,0.606128,-0.934064,0.94564,-0.10694,0.0523182,0.974115,0.375257,-0.825051,0.963656,0.889535,-0.931602,0.188523,0.119701,0.0493785,0.281439,-0.31127,-0.895789,-0.62347,0.411909,0.191674,0.151795,0.267641,-0.352515,0.6123,0.797034,0.453528,0.14603,0.230034,-0.142602,-0.722311,0.503472,-0.574184,-0.571793,0.408588,0.345449,0.386491,-0.00438999,-0.304257,0.568186,0.45165,-0.539482,0.730802,-0.405372,0.678711,-0.290929,0.881167,-0.724061,-0.23661,-0.509545,0.586794,1.05527,0.503359,-0.35532,-0.371737,0.337074,0.114049,-0.953279,-0.443306,-0.89341,-0.0247613,-0.723076,0.62547,0.185863,-0.213662,0.516015,-0.630852,-0.729338,-0.449853,0.941419,0.81821,0.651598,1.68032,0.281869,0.400563,0.501093,1.15314,-0.82849,-0.995721,-0.421719,-0.42979,1.45647,-0.987152,-1.22101,-0.114235,1.33066,0.329261,0.0487973,2.11509,0.885966,1.27588,-0.968473,3.379,0.907673,0.77252,0.414857,-0.586371,-0.93981,0.079047,-0.56175,0.773428,1.11313,0.148212,-0.326346,1.6804,0.974405,0.106533,-0.645217,5.07847,1.75609,0.383431,1.01222,0.822547,0.0789867,0.969076,-1.58559,0.855398,0.942017,0.831693,0.0359917,2.43652,1.00034,0.697046,-1.00281,6.6948,2.63091,-0.23591,0.709281,1.45752,0.157451,0.763524,0.212199,0.191305,1.67115,0.650073,0.817532,2.24909,-0.423753,-0.961587,1.19044,6.09032,2.46069,-0.914112,0.920099,1.59297,0.791831,-0.346954,-1.00963,-0.894966,1.60042,0.419904,0.228415,0.692122,-0.124162,-0.241404,-1.06219,7.66658,3.3413,-0.0651745,0.0287906,1.18276,-1.76062,-1.43373,-2.39137,-0.244892,-0.329185,-0.848011,-0.0770299,0.501638,-2.01735,0.161963,0.201084,8.54958,2.80527,-1.071,0.113793,0.316304,-1.35886,-1.98993,-2.55671,0.632604,0.76216,-0.00426221,-0.586534,-0.485285,-3.31478,0.38625,-2.29529,8.03968,0.282471,-1.70404,-0.943966,0.798414,0.871913,-2.13891,-2.19616,0.839205,1.8679,-0.601182,1.25516,-0.0418146,-4.90433,-1.5549,-1.23239,6.7507,2.24763,0.132762,-0.0725906,-1.07652,3.21011,-0.773109,-4.19686,-0.0244028,-0.583177,-0.329901,2.7048,2.36216,-1.08784,-3.48849,-0.288108,5.60607,1.7099,-0.130595,2.61734,-1.31236,3.82386,-0.447196,-5.63582,0.350546,-0.856595,0.753017,2.22802,2.80653,3.38396,-2.32515,0.0858567,0.650518,0.535734,1.62101,-0.16679,1.11126,-1.28216,0.318018,-5.34537,-0.746477,-0.193725,0.211906,0.0433377,-0.98198,5.13262,-0.875392,-0.609345,-1.54903,-0.988312,1.86451,-4.15392,2.25175,-2.37931,0.101025,-3.55796,-0.0837275,-0.903356,-0.161772,-0.914369,-1.45946,1.72698,-0.217118,-2.07445,-2.38831,0.585444,1.57838,-5.11606,3.4793,-2.1053,-0.18843,-1.62785,0.60746,-2.98158,0.436559,-2.4025,0.85046,1.09213,0.943814,-2.77213,0.350934,-0.480704,-0.940667,-4.06865,0.959321,0.683309,0.80364,-0.423409,0.720354,-3.29445,0.516763,-0.384425,1.54016,1.32803,-0.246178,-3.45052,0.703292,0.415889,-0.639861,-2.99702,0.978192,-0.0105925,-0.183624,0.360103,0.0773386,-3.06188,0.400233,-0.593127,1.92758,2.62789,-0.0108866,-3.15891,-0.683208,-0.286184,-1.03195,-1.44292,-0.558832,-2.52164,0.711376,-0.247297,-0.550638,-4.10761,1.00412,-0.839512,2.23797,0.0324636,-1.07152,-2.17737,0.132794,0.705291,-1.87253,-2.28432,0.310392,-1.56346,0.0882939,2.08341,-0.279745,-2.34406,-0.606132,0.530868,1.37991,0.229735,0.802254,-1.58738,1.30772,0.677342,-1.77908,-2.8831,0.0481561,-1.91134,-0.544114,1.52502,-0.849277,-3.74924,0.562621,-1.23959,0.493251,0.198556,-0.585169,-1.17322,1.9445,1.52695,-1.55564,-1.00811,0.499041,-3.06629,0.413945,1.27315,-0.696777,-4.05139,0.374931,-0.902798,-0.821536,0.547803,0.0298565,-0.862482,2.02293,1.18774,0.532621,1.68885,0.320297,-1.25157,0.701838,1.43412,-0.587753,-1.68967,-0.773796,0.103494,-0.192679,0.953205,-0.748782,0.729182,0.464009,-0.18032,-1.14854,1.79728,1.10344,1.05781,-0.12716,0.178409,-0.926683,-1.24589,-0.259133,-0.716271,0.0666378,-0.66694,0.157225,0.634535,0.968309,0.269725,0.209622,0.299876,0.433058,-0.304358,-0.851731,-0.733788,0.273185,-0.62408,-0.371055,-0.207058,-0.699085,0.113216,-0.515987,0.878748,0.855907,-0.377649,-0.514574,0.175166,-0.32214,0.34766,-0.556834,-0.675085,0.426318,0.174774,0.022523,-0.197536,0.474917,-0.592148,0.755682,0.456927,0.707427,-0.0390221,-0.464522,-0.800449,0.418445,-0.138062,0.105353,-0.321474,0.408858,0.731289,0.551553,0.697094,-0.0631468,-0.927817,0.355322,-0.227815,-0.346044,0.753455,0.757203,0.117956,-0.0185739,-0.80487,0.654297,-0.587884,0.369816,-0.441645,0.207411,-0.154708,0.103514,-0.0500499,-0.694152,-0.212101,0.93965,-0.137169,-0.0086211,0.334287,0.706291,-0.849533,-0.969231,0.136436,0.829584,0.31628,-0.192675,-0.208558,0.888607,-0.899895,0.580646,-0.700865,0.908098,0.36842,0.436326,-0.175056,0.49432,0.254037,0.156924,-0.037473,0.772448,-0.657083,0.703334,0.063675,1.14852,-1.101,0.559023,0.34943,0.28988,-0.407073,-0.207171,-0.478252,-0.328415,0.366066,0.431652,-0.300364,-0.568468,0.139052,0.331884,-1.16141,1.25745,-1.50372e-05,-0.290275,-0.62507,1.86246,1.214,0.438402,-0.151687,-0.198671,0.633645,-0.694355,-0.572636,0.254032,0.084746,0.600824,-1.44744,1.00206,0.496355,-1.82884,-0.269604,5.80061,1.02071,0.631207,-0.845277,0.502985,0.927707,0.610845,-1.40199,0.741295,1.69415,-0.634528,-1.34712,1.38513,-0.634753,-1.72292,-0.0387039,6.30953,0.875378,0.13803,-0.230495,-0.35284,1.30452,-0.342014,-1.71018,0.937265,2.15827,0.12777,-1.09849,0.358668,-0.0246796,0.0730822,0.129875,6.78286,0.629855,0.323051,-2.47593,0.623366,-0.188931,-1.02747,-0.340359,0.266448,2.66211,-0.674551,1.02662,-0.146686,-0.581517,-0.280842,0.627256,7.5772,1.35442,0.122102,-0.786592,1.22844,1.80229,-1.67908,-2.65451,0.810585,-0.907112,0.311465,0.17997,0.230568,-1.07514,0.0978263,1.47705,5.78031,2.40246,0.0462239,0.405162,-0.650594,0.0502724,-0.587924,-1.75981,-0.4418,-0.432368,-0.687183,-0.217478,-1.14825,-2.53689,-1.51056,-1.01295,4.24332,2.09582,-1.15788,-0.0813316,0.953189,2.01708,-1.40148,-2.34681,0.784798,1.69222,-0.586,-0.291884,-3.13183,-4.92532,-2.01746,-2.1927,2.94809,-0.200889,-1.85651,-0.0079923,-0.273301,2.98189,-2.62154,-2.95627,0.152876,3.88918,-0.224677,1.69474,-4.37888,-2.86464,-6.06976,-0.125742,0.708398,-0.0558242,0.235571,2.22567,-0.367395,2.27799,-1.27651,-3.2817,0.518311,2.42989,0.733038,1.47477,-0.566245,1.32078,-6.21664,0.808574,0.934183,-1.4412,1.06014,3.25311,1.51749,-0.671503,0.980021,-5.02669,-0.321652,0.646893,-0.257301,0.0970929,1.20163,5.06205,-4.10189,1.60227,1.29946,-1.28469,1.15205,0.582552,3.86393,-1.52225,1.48524,-6.29089,0.385266,0.0485051,-0.660339,0.0328069,1.63401,4.41686,-1.47832,0.691514,0.759808,-0.739841,2.29136,-3.58594,2.79441,-3.52784,-0.841749,-2.56433,0.0447471,0.977701,-0.546078,1.54878,0.701875,0.809118,-1.53021,-1.21108,-1.62102,-0.910916,1.13443,-3.71891,1.90669,-2.13508,-0.0297535,-1.21146,0.685177,1.63401,0.585582,1.09092,1.3977,0.178459,-0.610114,-4.23346,0.266102,0.147507,-0.224574,-2.99479,1.929,0.136619,-0.154092,-1.73414,0.811705,2.27312,0.744734,0.999538,2.05272,1.78203,-0.988848,-3.92379,-0.277817,-0.738865,-0.00518378,-3.23215,1.7801,-2.0121,0.616157,-1.06143,0.662029,-0.247544,-0.804907,0.0357333,2.05375,2.49133,-2.11442,-6.25832,0.53503,0.239764,-1.09565,-1.73484,0.959513,-2.12404,1.45502,-1.46985,-0.933962,-0.284659,-0.154417,1.01351,1.98011,3.22832,-1.91837,-3.65408,0.305232,1.11749,-1.55703,-2.61547,1.39692,-2.36392,1.06511,1.05211,0.0674469,0.973327,0.876373,1.21543,-0.477417,1.08402,-1.30425,-3.1591,2.09519,0.974022,-0.388623,0.120329,0.948217,-1.85803,0.273651,3.5178,-0.467687,-2.33045,0.391958,0.480275,0.191957,-0.85892,-1.18918,-4.62631,3.78924,0.97869,-0.467532,0.556334,-0.714784,-2.68085,-1.1087,4.11967,-0.52724,-2.67141,-0.286887,-0.30221,0.359327,-1.49992,-1.68978,-3.78093,1.01149,0.676884,-1.02499,3.41362,-0.3945,-0.813124,0.40542,3.33832,0.406205,-0.935236,0.078635,0.667575,0.37924,-0.76256,0.164344,-1.22326,0.612001,-0.908987,-0.346785,0.974013,-0.376887,-0.643171,0.406407,1.17738,-0.170308,-1.03264,0.502317,0.143795,-0.649142,0.922225,-0.0536207,-0.316354,-0.130477,-0.0809689,-0.0601142,-0.0600069,-0.149183,-0.63828,-1.09362,0.776971,0.61024,0.458233,-0.14905,0.445335,0.934072,-0.882052,0.0924914,0.725034,-0.722103,0.746192,0.964192,-0.120699,-0.319978,0.662909,0.618245,0.323909,-0.942825,0.281478,-0.977099,-0.457822,0.265286,-0.142454,0.386754,-0.37353,0.795582,-0.780124,0.254864,-0.886912,-0.251172,0.685882,0.796357,-0.645301,0.192189,-0.352643,0.841999,0.0355117,-0.0927384,-0.0917941,-0.283539,0.191207,-0.353356,-0.361355,0.986671,0.204632,-0.72688,0.76567,-0.407831,-0.669706,0.047035,-0.580045,-0.127744,-0.684651,0.508185,-0.768486,-0.0531092,0.261424,-0.527993,-0.782243,0.358095,0.214286,0.895478,0.169669,0.563656,0.0867908,0.801934,0.210487,-0.880849,-0.28774,-0.412436,-0.241166,0.931979,-0.0778343,0.472825,0.969931,-0.8274,0.739932,0.659327,-0.192507,-0.965268,-0.202772,0.380404,0.107497,0.0044122,0.0119179,0.854579,0.864373,-1.19323,0.592187,-0.261756,0.840169,-0.104384,-0.981094,-0.421883,-0.171852,0.121216,-0.406716,0.878705,1.28289,0.136126,-1.10849,0.79875,-0.0624769,-0.801948,0.386858,2.66454,1.02556,0.307481,-1.66969,-1.34303,0.843093,0.569375,0.324383,-0.66827,0.680323,-0.652485,-1.20607,0.181903,-1.51252,-2.07936,-0.855865,5.02764,0.370967,-0.556839,-2.02639,-1.40224,1.55654,-0.0996042,-1.10014,-0.158951,1.69619,-0.327616,-1.13787,-0.332104,-0.978177,-2.74328,-2.03412,4.99293,1.77253,-0.408459,-0.593464,-0.999356,1.00923,-0.430154,-0.00222119,-0.761927,1.32443,0.0845743,-0.405105,-1.15033,-2.00942,-0.713383,0.246928,4.27047,0.521915,-1.21361,-1.19481,-0.0490441,-0.362111,-0.06224,0.222004,0.138588,1.18434,-0.222304,0.315773,-1.37758,-1.12728,-1.16696,0.742914,3.08006,-0.748571,-1.07992,-1.81634,0.0870485,2.15514,-0.817543,-0.952067,-0.858826,0.224438,0.814315,-1.1,-1.48033,-2.13276,-2.90438,1.12575,2.99696,0.161153,-1.32315,-0.800145,-0.728722,1.88519,-0.747186,-0.299105,0.684516,1.23124,0.727227,-0.696199,-2.37396,-5.03856,-4.62988,1.37894,0.615133,-0.490737,-0.391053,-2.15331,-0.335337,2.03388,-1.06238,-0.837539,-0.885283,3.1609,0.774467,-0.79194,-4.92967,-3.51657,-6.73336,0.073569,-0.614047,-1.26256,-0.749358,0.534657,-0.935508,1.04901,-0.599673,-1.44989,-0.319064,3.12392,0.604559,0.408312,-3.43656,-0.692215,-7.08063,-0.377808,-0.264365,-0.304532,0.128733,1.44251,0.629027,-1.4462,0.402515,-1.88061,-0.00976247,0.657083,0.255672,-0.403395,-0.569356,4.247,-4.79108,0.846927,-0.805406,-0.690994,1.10801,3.60532,0.853217,-3.10789,1.99874,-3.12915,-0.186768,-1.01443,-0.71971,0.506869,1.49009,4.30127,-1.89664,1.29434,-0.411782,-2.47057,0.112208,0.525409,3.09025,-5.0821,2.77693,-4.20699,0.526338,0.503618,-0.175093,2.38508,2.27017,2.6557,-1.21109,-0.265968,0.0871726,-2.57301,0.812014,-4.61996,1.93821,-5.42176,-0.0569098,-1.9289,-0.876105,1.47385,0.0611918,1.21746,-0.0404022,1.17822,-1.79921,-1.6948,-0.157523,-1.26987,1.04803,-2.5346,0.94645,-3.11749,0.0362978,-2.26295,-0.508367,2.03731,0.211129,0.151776,0.394784,1.48552,-1.12765,-1.72169,-0.236488,-2.14568,-0.581649,-2.85045,1.33305,-0.191758,-0.744451,-0.934899,-0.218498,3.08662,0.808232,-1.52637,1.81716,2.99548,-0.920222,-3.38071,-0.957774,-1.50224,-0.336084,-2.04633,1.78042,-0.742584,1.46297,-0.713889,-0.873714,1.85644,-0.508242,0.340625,1.01786,2.39075,-1.93389,-4.01378,-0.228621,-0.323547,-1.45058,-4.17663,-0.335736,-1.46507,1.1218,-1.35696,0.329635,1.64119,-0.0589958,-0.166796,0.891741,1.66777,-2.55881,-3.23046,2.54481,-0.146596,-0.623555,-3.77027,-1.20243,-1.88982,0.8838,-0.562358,0.103718,-0.471875,-0.740788,1.83118,-0.47316,0.489308,-1.37079,-3.23232,1.89832,-0.0183878,-0.729083,-0.350179,0.0815,-1.43631,0.103212,2.036,0.997697,-0.908574,0.707896,1.51682,-0.541173,-1.79157,-1.80076,-3.90563,2.61152,1.36816,-0.0511491,1.97434,-1.85001,-0.436631,-1.63274,3.32683,0.131668,-0.836656,-0.321462,3.03714,-1.68872,-2.17885,-0.538839,-2.18607,0.725249,1.55254,0.256517,0.816373,-2.14676,-0.209616,-0.735118,2.05778,0.12272,-0.579897,0.204775,3.11293,0.0980371,0.189264,-0.992639,-1.63763,0.18018,0.371895,-0.471491,1.71625,-1.09717,-0.568441,-0.435181,1.66144,0.0736647,0.536115,-0.144118,1.21624,-0.773983,-0.56255,-0.420168,-0.540218,-1.33531,0.768416,-0.182571,-0.336802,-0.223686,0.56461,-0.446685,0.9213,-0.457928,-0.671423,0.480425,0.969548,1.0714,0.838123,-0.363963,0.425601,-0.0268423,-0.00512067,0.179488,0.348412,0.654763,-0.763776,-0.595714,-0.284072,-0.994109,0.272398,0.886057,-0.888431,0.602943,-0.581513,-0.222347,0.880627,-0.86392,0.485404,-0.466387,-0.195432,0.25987,0.523661,-0.7725,0.822714,0.752994,0.707717,0.68804,0.730832,0.486792,-0.733926,0.176868,-0.471261,0.249244,-0.655376,0.692639,-0.149127,-0.422765,-0.889839,0.526166,-0.40334,0.383565,0.260575,-0.292749,-0.00693952,0.832348,0.432009,-0.10506,0.938782,-0.0922529,0.456243,-0.438661,-0.837692,0.00311007,-0.207143,0.957008,-0.248423,-0.503748,0.427107,-0.514289,0.959742,1.02887,0.57158,-0.476002,0.155021,-0.986473,-0.775357,-0.983883,-0.405907,-0.675702,0.562096,0.158496,0.726396,-0.0456432,0.799213,-0.315565,-0.138,0.582093,0.462959,-0.764436,-0.787948,0.498503,0.556334,-0.593852,-1.08919,-1.00227,-0.434804,-0.15518,-0.40662,-0.985773,0.61536,-0.473634,0.376098,-0.0180915,-0.538601,-1.2507,-0.146942,2.20385,0.72438,0.52062,-0.521763,-0.81276,0.00744076,0.61637,0.799349,-0.380005,2.15766,-0.633573,-1.47675,-0.369088,-1.67976,-3.74216,-0.968785,2.46571,0.326803,-0.525654,-1.79526,-1.68975,0.771926,-0.127525,0.638887,-0.332453,2.42633,-0.0844935,-0.756783,-2.0134,-3.07838,-3.90965,-0.841087,2.95783,-0.125675,0.0103828,0.300857,-2.18643,-0.60029,0.458124,1.38531,-0.488942,1.53629,0.39076,-0.752665,-2.73246,-1.49637,-2.78831,-0.587367,1.09329,0.166126,-0.0225047,-1.67351,-2.4417,-0.27915,-1.18954,1.96799,0.899661,2.4302,-0.0651112,-0.24408,-2.31327,-2.31686,-4.83535,-0.957987,0.215139,-0.580669,0.221001,-2.28717,-2.40121,2.51167,-0.00857907,1.34885,0.0187609,1.14605,-0.389813,-0.867915,-3.12405,-2.71302,-6.76331,1.28923,-1.02171,-1.6286,0.176759,-1.49897,-1.10493,-0.202778,-0.244615,0.674664,0.018833,1.80775,0.290005,-2.29385,-2.98422,-4.39469,-7.94879,0.766624,-0.0710001,-1.3064,-1.19276,-2.58325,-1.56132,-0.509531,0.202229,0.0523471,0.216726,1.76667,-0.760781,-1.55061,-4.43745,-1.40709,-6.43965,0.0505545,0.687411,-1.16319,-0.291873,-0.657466,-2.27323,-2.4248,0.244246,0.499604,-0.865433,0.882368,0.625671,-1.47925,-3.08134,1.92863,-3.89005,0.981147,0.0725688,-0.446315,0.742288,2.21411,-1.02452,-2.99401,0.828719,-1.11391,-0.169034,0.337944,-0.284475,-0.620171,-2.06173,4.02923,-0.0496499,0.98998,-0.714574,-0.498451,0.217534,1.65075,0.219782,-3.49286,1.9633,-2.13281,0.12159,0.0808748,0.831948,2.10403,0.331999,3.41647,0.492869,1.62614,-0.841661,-2.35495,-0.220759,-0.352115,1.0047,-4.07459,0.876803,-2.03916,0.361002,1.17176,0.279025,1.24029,0.703217,0.790776,0.201902,-1.42484,-0.0436768,-1.5888,-0.225435,-2.82542,1.27867,-4.49906,-1.30441,-1.65993,0.999477,1.31919,-0.379268,1.15342,-0.274311,-0.781527,-0.981309,-1.25008,-0.375245,-2.22711,1.67766,-3.08883,2.35179,-3.13903,-0.589089,-1.84042,-0.0682272,1.33041,0.65995,0.09947,-0.0779946,0.338453,-1.35475,-1.37386,-0.845207,-3.46918,0.454665,-1.89115,1.08446,-2.18017,-1.53545,-1.70503,-0.822688,0.656317,-0.547798,0.501955,2.35567,1.07031,-0.598689,-0.771592,-1.31762,-3.19919,-0.907245,-3.07537,0.0225043,0.131784,-2.01763,0.154702,-0.785451,1.19805,0.381211,1.51988,0.480377,-0.141799,0.785555,-2.76334,0.229879,-1.18253,-1.38942,-4.86286,0.116952,-1.03267,-1.99674,0.199101,-0.337132,-0.708549,0.186907,1.66842,0.292988,0.18101,-1.5788,-2.21166,0.390775,-0.756693,-0.958052,-3.66987,-2.07047,-0.0609471,-1.19658,1.32938,-0.451225,-0.806493,-0.0475838,1.71045,1.24588,-0.261877,-1.89216,-3.24259,-0.132222,-0.497613,-1.22373,-0.965624,-0.020735,0.13281,-1.80735,1.19957,-0.17948,-0.236224,0.657037,2.1083,0.0793042,-0.887336,-0.179532,-2.35829,1.7478,-0.519262,0.192471,0.0916037,-1.46293,-0.753965,-1.48516,2.77671,-0.552902,-0.0518273,-0.790857,3.00413,-0.0985835,-2.81835,-0.371552,-2.93459,-0.636721,0.937011,0.230091,1.83229,-0.698459,1.49461,-0.230509,1.68138,0.347609,0.673094,-0.453989,0.957288,-0.0756371,-2.22168,-1.34583,-0.87208,-1.08953,0.259338,0.656418,1.48181,-0.410684,-0.28426,-0.354663,1.40115,0.0813041,-0.0810603,0.596734,0.441651,-0.462714,-0.0388901,-0.154792,-0.807836,-1.19367,0.629813,0.918277,-0.712999,0.30267,0.471165,-0.186754,-0.325083,0.152727,0.61844,-0.0685068,-0.377358,0.836206,0.138572,0.543036,-0.721721,-1.30853,-0.0161164,0.793228,0.344744,0.62258,-0.109678,-0.109616,-0.211858,-0.653003,-0.517688,0.170035,-0.389108,0.382185,0.83365,-0.0367595,0.842356,0.389648,-0.0751946,-0.770543,-0.4804,-0.359834,0.344949,-0.00729106,0.81198,0.0446485,0.924186,-0.671932,-0.108444,-0.0486517,0.83578,0.177898,0.0610055,-0.291057,-0.00906648,-0.664635,-0.648621,0.962166,0.221507,0.0751201,-0.686404,0.704996,-0.772344,-0.0756947,0.0876464,-0.921619,0.886759,-0.0771142,0.468031,-0.192543,0.158626,0.985389,0.443166,-0.475764,-0.0122872,0.237361,0.568667,-0.0977638,0.426729,-0.537812,0.841213,0.379603,0.501542,-0.132097,-0.887929,-0.3566,0.116526,-0.522652,-0.436602,-0.48206,0.574103,-0.110327,-0.901137,0.781989,0.717188,0.260786,0.821772,0.29961,-1.09195,-0.116149,-0.393723,0.574973,0.456691,0.989224,0.815581,-0.549846,0.375994,0.383977,0.191432,-0.231601,0.903687,0.043423,-1.70972,-0.290253,0.313072,-1.94107,-0.628753,1.4612,0.132669,-0.307913,-0.07459,-1.18254,0.849275,1.02613,-0.161118,0.515677,0.548445,0.9187,-1.93821,-1.42115,-1.40603,-2.41343,-1.73657,1.11039,1.2029,-0.770472,-0.22759,-2.22375,1.64017,-0.66923,2.49901,0.907654,1.2156,0.867247,-0.554536,-0.921882,-2.3432,-3.5579,-2.22816,-0.165401,-0.326009,0.297656,-0.287893,-3.2768,-0.211076,0.359623,3.2095,-0.0604935,0.55827,-0.147793,-1.52192,-2.21606,-2.37633,-3.92727,-2.22234,-1.0643,0.901528,-0.0949806,-1.42028,-2.23246,-0.245708,-0.5529,4.30137,-0.0388224,1.81465,-0.135104,-3.24873,-1.19464,-3.08387,-6.73141,-0.231113,-2.07224,-0.311802,-0.667435,-2.20047,-2.68266,-1.45019,-1.43389,3.54211,0.379922,1.65416,0.288474,-0.964087,-1.66632,-2.80366,-6.27876,-0.678179,-0.235986,-0.161074,0.181754,-2.08192,-1.56178,-1.10987,-0.29294,2.02428,0.32569,1.36895,0.440261,-2.21205,0.889113,-2.2224,-5.73616,0.43706,0.433177,-1.35011,0.77912,-2.33443,-2.70125,-3.08189,0.190045,0.342635,0.693457,-1.0769,-0.437741,-0.887022,-2.67766,-0.939197,-2.57999,-0.760794,-0.647755,-1.24355,0.219402,-0.304201,-3.80635,-4.0476,0.776849,-1.05245,0.2144,0.285365,0.766248,-1.02517,-3.58118,1.29674,1.28099,0.560408,-0.900433,-1.40097,-0.267658,1.97786,-1.10206,-2.74948,-0.745814,-2.44619,0.877852,0.556023,0.26319,-0.498351,-2.68344,3.05799,1.73955,0.942591,-0.644939,-1.08583,0.24204,2.01337,-0.109936,-4.13544,-0.932247,-4.11746,0.446624,0.126656,0.885288,1.64074,-1.21731,4.0935,1.62118,1.50085,-0.0612621,-2.30999,0.382261,0.0389691,0.978505,-4.77516,-0.864372,-2.20962,0.902108,1.69636,0.239616,-0.229308,-1.04873,2.15828,1.35212,-0.269294,0.453445,-2.82745,0.729815,-4.04089,1.17025,-2.78505,0.268558,-1.08713,0.385464,1.93843,-0.683641,-0.566614,0.135702,0.987902,-0.491319,-1.2505,0.618593,-0.837436,1.56799,-3.20651,1.18194,-3.72842,-1.83286,0.340497,0.885995,2.3847,-0.422368,-1.09218,0.595253,1.21504,0.128779,-1.11845,-0.108814,-1.02464,-0.832123,-4.06306,-1.40022,-1.41272,-1.82764,-1.08215,-0.355793,0.193501,0.735757,1.30553,-0.438031,1.14901,1.34683,-0.104663,1.38643,-1.48791,-0.72074,-2.91949,1.13841,-1.37933,-0.651116,0.338757,0.524219,-0.237371,-0.167398,1.09734,-0.0825936,-0.691411,2.26645,-0.70474,1.3138,-2.2462,-1.84848,-3.37366,0.186156,0.332757,-1.10058,0.294627,-0.590404,-1.80844,-0.852525,1.03413,-0.560507,-1.33254,0.971995,-2.00742,0.629842,-1.59467,-0.791658,-3.47021,-1.21121,1.25507,-0.135907,0.212771,0.843637,-1.05329,0.196175,1.12189,-0.337766,-1.15966,-0.125849,-2.474,-1.19296,-1.353,0.0147909,-0.602686,-1.61314,1.04275,-2.36425,0.972288,-0.569774,-1.79026,0.654934,-0.277726,-0.204624,-1.92706,-0.732083,-2.5357,1.16329,-0.778264,-0.42041,0.27686,-0.682324,1.32265,-1.70082,1.14374,0.887166,-0.737399,-0.360359,-0.0871415,-1.59326,-1.72642,0.498416,-1.26819,-0.0883342,0.526149,-0.114209,1.8658,-0.347481,1.24656,-1.0735,0.339171,0.913254,-0.724454,-0.203597,0.70722,-0.582049,-1.34186,0.293474,-0.758128,-2.16417,-0.0862555,0.334474,1.26205,0.549449,-0.492655,-0.54426,1.2067,-0.172584,0.0644686,-0.9996,1.23729,-0.0359531,0.705836,-0.365992,-0.858697,-1.08998,0.858603,0.922309,0.0911311,0.156449,-0.48211,0.00920708,0.388549,0.218346,-0.979131,0.796035,-0.62955,0.15125,0.502303,0.138141,0.385115,-1.44681,-0.507497,0.0201105,-0.936102,-0.00848395,0.857798,0.776461,0.983831,0.444892,0.835423,0.133858,-0.388079,0.637273,0.556166,-0.174465,-0.00636357,0.174599,-0.245912,-0.871635,-0.539106,0.525499,0.490037,0.606528,-0.207925,0.656969,0.402563,0.108111,-0.180557,-0.179464,-0.790838,-0.788789,0.00255312,-0.325895,0.241107,0.0861194,0.665315,0.162089,-0.0416986,0.483941,-0.393006,-0.168534,-0.390487,0.218594,-0.510986,-0.821639,-0.955837,0.482864,0.4258,-0.184647,0.613172,0.865864,-0.650892,0.144066,0.476653,0.094349,-0.25839,-0.125048,-0.939612,0.586403,0.719635,-0.59283,0.751372,-0.448404,0.113408,0.0740106,0.515754,-0.19834,-0.808223,-0.181935,-0.686049,-0.187011,0.439207,-0.147184,-0.872263,-0.93138,-0.174214,-1.45894,0.366901,-1.21138,0.135248,-0.0602478,-0.83245,0.238099,-0.579449,1.07517,-0.469785,0.170726,-0.637827,-0.476526,-0.55777,-0.65859,-1.12084,-1.06756,-0.452505,-2.26024,0.771919,-0.11823,0.0549605,0.560605,0.0856652,-0.408885,0.25374,0.565099,1.16169,-0.503489,0.492454,-0.107528,-1.84239,-1.17112,-0.882817,-1.78692,-0.472415,-0.296999,-0.0192398,-1.36571,0.293524,-1.8713,1.75851,-0.710706,1.75956,0.875268,0.173589,-0.533637,-0.945842,-1.36093,-2.24085,-2.81682,-2.5714,-1.9402,0.762156,-0.317488,-1.52506,-1.23925,-0.794351,-1.06554,3.21522,-0.856309,0.377254,-0.026519,-0.884581,-1.37682,-2.35224,-4.21655,-1.41099,-1.15445,0.668208,-0.572791,-2.50272,-2.76634,-1.62828,-0.191712,3.8714,0.727866,0.779569,-0.530485,-2.2863,-0.924723,-1.84336,-4.60625,-1.63143,-0.00361927,2.06921,-1.4204,-1.4448,-1.79207,-4.07255,-0.381339,4.50756,0.152188,1.80231,0.171987,-0.913754,-0.229205,0.353701,-2.20875,-1.95576,0.645779,1.21374,-0.558322,-0.95535,-2.40497,-4.6495,-0.0548307,4.4161,-0.855362,1.68166,-0.0282213,-1.24441,-0.138056,-1.28953,-1.98919,-0.573303,1.73447,0.575724,0.271973,0.0201193,-4.33308,-4.30769,1.46369,4.17897,-0.831917,0.551992,0.291807,0.460591,-0.332388,0.655923,0.001299,-2.60439,0.986957,-0.276274,0.416093,2.68653,-3.47566,-6.99275,0.870111,0.117592,-0.338859,0.67668,0.310548,-1.58866,-1.72247,2.97089,-0.318455,-1.88066,-0.956911,-0.0419882,1.05129,0.259971,-0.154673,-4.53904,-0.450037,-1.7405,-0.410696,2.08872,-0.17496,1.08761,-2.23648,2.92153,2.57524,-0.298065,-0.565076,-1.54099,1.73042,1.53893,0.793269,-5.00199,-1.5401,-2.85261,0.152189,2.83189,0.153537,2.92867,-1.30402,2.16286,1.85268,0.410195,-1.13006,-0.335949,-0.577808,-0.164414,0.696272,-5.65731,-1.58357,-0.77813,-0.126862,2.99809,0.387093,-0.89347,-2.65173,-0.554277,1.13857,-1.14608,-0.711894,-0.0415115,-0.34781,-4.19215,0.438194,-3.47455,-1.38474,-0.384114,0.521453,2.11817,-0.0658325,-3.80704,-1.28625,0.578667,0.10697,-2.21616,-0.376311,-0.918546,-0.707839,-4.04927,-2.54215,-1.66549,-0.96827,-2.00483,0.61884,1.42368,0.622192,-2.6186,-0.649637,-0.629814,1.44051,-0.709878,-0.879607,-0.861201,-1.80257,-4.99689,-2.2606,-1.15155,-0.67679,0.601398,0.674868,0.468337,0.936282,-1.54193,-1.06734,-0.704437,0.599606,0.169574,-0.441874,-0.762459,-1.88173,-1.64084,-1.47645,0.594261,-0.3468,0.886082,-0.449061,0.899804,-0.0914088,0.492721,-2.23754,-2.56471,2.10344,-1.54805,0.525791,-2.01822,-1.77422,-0.574004,-0.596392,1.47581,-0.882397,-0.274078,-0.995883,0.0256523,0.0746517,1.21537,-1.4259,-1.34374,1.07193,-2.07188,0.483809,-0.913304,-1.54878,-0.278493,-1.299,2.83547,-1.36035,0.293583,-0.0393185,0.15664,0.544965,-0.27763,-1.32621,-0.752482,0.933672,-3.01516,-1.34584,-2.40445,-0.0774819,-0.14822,-0.414455,1.61771,-0.90537,0.677444,0.689756,0.709959,-0.143081,-0.259569,-0.343528,-0.696524,0.10082,-2.49657,-0.937653,-0.509692,-0.576591,1.15567,0.0332944,2.72472,-1.32073,-0.486314,0.439082,0.72984,0.982886,1.04179,-2.43297,-0.847152,0.054035,-0.35239,-0.589522,0.151213,0.297302,1.61461,-1.4426,0.236305,0.0165974,1.18077,-0.145878,-0.851004,-0.721566,0.0067114,-1.45197,-0.42117,-0.913507,-0.311215,-0.657492,0.629592,0.454341,0.997911,-0.0483293,0.962538,-0.598175,0.255619,0.500797,-0.793873,-0.647958,-0.136326,0.585684,0.778148,1.16467,0.347816,-1.77807,0.912289,-0.0600195,0.0132867,-0.792739,-0.963244,-0.375384,1.09637,-0.472365,0.0990861,0.753736,0.736899,0.0286568,-0.675199,-0.191549,-0.198645,0.0822561,-0.515002,-0.469879,0.180701,-0.633832,-0.0779397,-0.860108,1.0568,0.512851,-0.480577,0.885693,0.471449,-0.628574,0.636119,0.00467349,0.494816,0.186276,0.970491,-0.312003,0.996294,-0.687633,0.637907,0.487224,-0.0970632,-0.125235,0.241015,-0.460138,0.925698,0.454132,0.262626,-0.231828,0.267852,0.739273,0.282519,-0.454047,-0.89535,-0.690245,-0.272483,0.970823,0.822607,0.26107,0.853651,0.305968,0.634613,0.494011,-0.690278,0.128403,-0.131378,-0.710114,0.817473,-0.148538,-0.392619,0.493465,-0.658147,0.455001,-0.666088,0.579721,0.85603,-0.73684,0.0673589,0.100691,-0.060896,-0.779229,0.0847466,-0.635993,-0.420092,0.101584,-0.384644,0.647678,0.196373,-0.534077,-0.0464609,-0.0712489,0.749818,-0.522807,-0.762136,-1.1333,0.700533,-0.429949,-0.27498,-0.458354,-1.29649,-0.0283522,-0.0438703,0.0905609,-0.13215,0.608562,-1.66911,-0.593358,0.557364,0.0860194,-0.706332,-0.981565,0.0453507,-1.63732,0.255587,-2.40036,0.80263,0.225802,0.623151,0.107038,1.95473,0.0709866,-0.372482,0.630875,0.290758,-0.807241,-0.571061,-1.56071,-0.498191,-2.32876,-1.09149,-1.9006,0.970569,-0.752529,-1.01041,-1.16815,0.807707,-0.0179121,1.22819,0.698235,1.06392,0.489351,-0.847213,-2.34334,-1.73802,-1.63376,-0.973136,-1.51687,1.21212,-1.7429,-0.585299,-2.69843,0.666891,0.121744,2.95143,-0.64184,-0.519783,0.665076,-1.95353,-2.68959,0.068629,-1.85305,-0.0283503,-1.37386,1.1391,-0.250568,-2.12025,-2.93609,-2.49001,1.07217,3.01188,0.089911,0.763414,-0.652566,-1.55754,-0.477995,0.66567,-2.50881,-0.583253,0.559095,3.12019,-1.5232,-1.41109,-2.23653,-5.37451,-0.997326,4.62387,0.354863,1.28998,0.743108,-1.73738,-0.16579,0.40891,0.720041,-1.45392,1.063,4.51603,-0.560073,0.842298,-2.17986,-6.52546,0.543665,5.76364,0.561029,0.0763001,0.694349,-1.29287,0.318041,-0.352391,-0.521835,-0.681292,1.74361,4.51425,0.95998,2.33555,-3.30395,-5.58175,-0.332157,6.85261,0.236861,2.46197,-0.764745,-0.993994,-1.17642,2.27637,-1.07548,-1.98256,0.860239,4.41824,1.18744,1.50611,-2.92144,-5.01808,1.18494,3.71879,0.372819,2.32652,0.942717,-0.611221,-0.102677,2.56227,0.505325,-1.42262,1.16306,4.6287,1.1173,-0.696386,-0.307124,-6.7172,0.0469966,0.0727269,-0.831748,3.1606,-0.220052,0.636625,-0.0582648,3.22969,0.40395,1.10461,-1.11572,1.87561,0.913693,-1.69501,1.36597,-7.10407,-2.45603,0.719433,0.561065,3.1575,-0.860435,1.22037,-1.39985,-0.686588,0.541115,0.731187,-0.821487,0.864255,-0.877424,-2.41037,0.941621,-5.63174,-3.49393,0.857968,0.614096,3.12131,1.43024e-05,-1.90451,-2.29494,0.17484,1.00868,-0.0859552,-1.64962,-0.13549,-0.783515,-3.67503,-1.28513,-3.16983,-1.36996,0.435112,0.103609,-0.165874,0.776049,-4.28803,-3.13735,0.630897,-0.223063,-0.665329,-0.831993,-0.0940151,-0.484896,-3.39979,-1.72673,-0.552297,-1.52948,-0.302736,0.368867,-0.269862,0.97278,-1.2284,-1.44444,-0.224255,0.225368,-0.425733,-1.24194,-0.832008,-2.08075,-2.44354,-1.99325,0.897244,-0.153079,-0.516356,-0.68699,0.557944,-0.114056,-0.0810811,-0.534743,-0.520469,-0.484522,-0.433726,0.4143,1.14948,-1.52006,-1.28137,-2.49303,1.62144,0.265531,0.361482,-0.651313,-0.80935,0.641211,1.26223,-1.09936,-0.142524,0.633712,-0.0148399,0.734253,-0.596067,-1.11836,1.30708,-1.27677,1.02003,0.0811097,-0.816252,-0.394191,1.04344,-0.0607603,0.684143,-0.467609,-0.606558,-0.189247,-0.951265,0.322308,-0.349268,-1.08805,1.88873,-2.15676,1.29451,-0.522063,0.098024,0.521142,0.913713,-0.349347,1.69173,0.294028,-1.9271,-0.830488,-1.25586,-0.747885,-0.056338,-0.765841,3.12772,-0.594921,1.46274,-0.276054,-0.822679,-0.559522,-1.41342,-0.0788524,0.548838,-1.3905,0.588728,-0.73179,-1.47016,-1.8443,-0.640772,-0.0444671,4.14434,-1.08922,0.814562,-0.156811,-1.17246,-0.848494,-0.553074,-0.722538,0.976114,-0.888624,-0.42156,-0.388623,-0.476367,-2.02292,1.45009,-0.561452,1.93024,-0.669087,0.609968,0.964226,0.689534,0.0511569,-1.35643,-0.196391,0.761974,-0.286937,-0.337184,-0.559311,-0.267415,-1.96031,-0.383152,-0.53435,0.378734,-1.88293,0.630773,0.761262,0.13427,0.320564,-0.386049,0.723924,0.346377,-0.732326,-0.61825,-0.327971,0.0865528,-2.40585,0.631607,-1.00257,0.852396,-0.621065,0.419318,0.328308,-0.203264,0.962486,-0.904628,0.386644,0.964962,0.845935,0.692827,0.209161,0.43888,0.05422,-0.905419,0.996948,0.811104,0.883752,-0.0604273,-0.66292,0.355304,-0.738379,-0.937095,-0.971609,-0.45946,-0.456544,-0.9032,0.965883,-0.0572641,0.400714,-0.805553,-0.396793,-0.475049,0.844525,0.976554,-0.350012,0.800787,-0.844454,-0.962753,0.726051,-0.921101,0.662042,-0.232164,0.525729,0.313109,-0.15644,0.489352,0.271262,-0.223354,-0.539003,0.627109,-0.983423,-0.278183,0.698744,-0.941312,0.33757,-0.745312,-0.843369,0.293686,0.197443,0.608311,0.488584,0.800737,-0.871113,0.343084,0.786275,-0.219983,0.16061,0.933965,-0.183528,-0.277706,-0.985902,-0.546531,0.564375,0.495991,0.790522,-0.428936,-0.10665,-0.108672,0.287861,0.514327,-0.111533,0.419958,-0.772651,-0.575111,0.377738,0.388584,-0.342972,0.461101,-0.484652,1.12895,-0.396613,-0.50559,-0.943573,-0.495997,0.682946,0.566207,-0.18173,0.462582,0.698164,-0.606491,0.711783,0.547133,0.347986,-0.77313,-0.528682,-0.0222372,0.120135,1.13874,-3.31108,-0.24382,0.278039,0.0814298,0.298662,2.00462,1.07341,0.117657,0.150696,1.06568,0.427937,-0.756948,-1.11723,-0.900212,-1.39578,0.092527,-1.06939,1.35827,-0.981889,0.304452,-0.835954,0.276959,0.802454,-0.569788,0.568199,-0.783051,0.892525,-1.96988,-2.45753,0.0902986,-1.2927,1.277,-0.953926,2.09391,-2.49733,0.184266,-1.53606,1.55483,1.79255,-0.137805,0.498915,-0.779719,-0.441175,-0.465611,-2.95736,-0.167442,-0.838597,1.25766,-0.848372,2.78,-1.39227,1.03034,-1.17653,-0.739579,0.458131,1.50743,0.785642,-1.45858,0.767689,-0.450396,-1.71337,1.20776,-0.328808,0.0955232,-0.634069,2.74232,-2.05911,2.65247,-1.69117,-2.29054,0.317987,2.22556,-0.691208,-0.620122,-0.0152229,-0.0550042,-1.20171,2.02498,1.51085,0.500329,0.948774,6.05182,0.345983,0.965144,0.294431,-4.78543,-0.184981,4.36716,-0.938739,-1.34671,-0.791127,1.73122,-1.87883,0.953858,-0.30964,-0.854963,1.67375,5.6007,0.17911,1.50862,-1.94432,-3.9998,0.619529,5.98712,-0.77806,-0.791091,-0.669096,1.423,-0.67572,3.30081,0.0887927,0.418161,0.844895,7.73193,0.948855,-0.254589,-1.02841,-4.4086,1.16298,5.17414,-0.669034,1.00699,0.812072,2.57861,-2.87439,2.59412,0.63566,0.0567583,0.910272,6.58749,2.27698,-0.0650392,-3.21747,-4.4499,-0.857654,1.87238,-0.691365,1.0734,0.953742,2.27067,0.948954,2.68223,1.90328,0.274083,-0.159366,4.40307,-0.690007,-2.46532,-0.107011,-4.24925,-0.904174,2.84302,0.870429,1.89167,-0.476289,2.04502,0.427866,1.32579,2.62933,1.31157,-1.25265,-0.182383,-0.766385,-2.94683,-1.22427,-1.69314,0.390524,0.406664,0.736757,1.86226,0.21054,0.356492,-0.258895,0.308017,0.197326,-0.219366,0.611079,-1.06543,-1.17124,-1.06954,-1.17297,-1.53984,0.288764,0.333,0.91677,1.069,0.0172385,0.76683,-2.02069,0.141078,-0.588777,-0.661261,0.399305,-1.46315,-1.69976,0.484168,-2.513,0.938892,-0.305205,-0.760378,-0.700822,0.902649,0.630822,1.41885,-2.74979,-0.024497,-0.286304,-0.392793,-0.789356,-0.418523,-0.481976,0.502339,-0.932915,1.79679,-0.416737,-0.077803,-0.495548,-0.424032,-0.126685,1.93797,-1.71778,0.694873,-2.87856,0.163472,-0.103614,0.44022,-1.30214,0.989562,-1.29834,1.44713,0.761457,-0.096401,0.228741,-0.591989,0.39854,0.0471991,-1.36781,0.316226,-1.78499,-0.217486,-0.105105,-1.02464,-1.68877,1.6702,-0.674814,1.12477,1.11898,-0.376594,0.496564,0.314916,0.889508,0.387382,-0.153597,-0.440069,-1.56011,-1.55334,-0.461956,-1.55488,-1.62846,3.26767,-0.734204,1.01398,0.986921,-0.0627705,-0.380003,-2.37323,-0.284245,0.770497,0.0766847,-1.07533,-0.40314,-1.65922,-1.26702,-2.79864,0.136127,2.84853,-2.60081,1.27275,1.31145,-1.02826,-0.156395,-2.16434,0.235107,1.06458,-0.1899,0.850596,-0.645596,-1.98947,-1.4833,-1.36877,-0.197358,3.58763,-1.65134,1.24931,0.188755,0.102955,-0.042916,-1.11251,-0.572855,-0.36026,-0.477653,-0.516599,1.04982,-0.80993,-3.08327,1.03404,-1.6094,2.80372,-0.855602,0.474053,1.06662,0.906788,-0.135556,-1.67882,0.036021,-0.737562,-0.38106,-0.16322,0.640677,-0.390901,-3.53952,1.85931,-0.837477,1.96567,-1.12586,0.132594,0.364302,1.60885,-0.39659,-0.470396,0.779893,-0.708611,0.000813917,-0.303041,0.395316,0.513397,-0.922122,0.393082,-0.465289,0.259985,-0.596212,0.683745,-0.240138,1.1293,-0.747505,0.648823,0.845125,0.747265,0.228707,-0.856635,-0.148286,0.732235,-1.36416,0.568257,0.0147675,-0.392309,-0.136385,0.390774,-0.845823,0.51803,-0.609263,0.918402,0.649105,0.763228,-0.105779,-0.25175,0.559887,-0.15631,0.866979,-0.562096,0.750496,-0.300839,-0.563878,-0.639459,-0.680757,-0.31265,-0.921852,-0.835632,-0.6138,0.322105,-0.736363,0.232796,0.0746149,-0.696047,-0.219564,-0.973674,-0.0821915,0.657857,0.487982,0.0622869,0.138687,0.878717,-0.0135954,-0.226404,0.581275,0.910503,0.535688,0.132674,-0.289421,0.480196,0.612995,-0.560854,-0.821166,-0.966919,-0.171491,-0.442009,-0.299158,-0.0969905,-0.337556,-0.0871406,-0.770776,-0.0385845,-0.657434,0.317611,-0.0699131,0.161822,0.152486,-0.992769,-0.230908,-0.0639041,0.372544,1.02161,-0.276084,-0.836612,-0.301621,-1.10399,-0.924305,-0.772371,-0.0329372,0.123824,0.20531,-0.243963,-1.51057,-0.127244,0.0461272,-0.586028,-0.138606,1.47913,0.113204,-0.251311,-0.158501,-0.0806017,1.00613,-0.724257,-1.1043,0.0433036,-1.00699,0.756485,-2.00818,-1.02693,-0.425712,0.0692361,0.590311,1.94119,0.476992,0.757514,0.604239,-0.1012,0.933973,-1.75568,-0.394005,0.14692,-1.32882,-0.567589,-1.21003,-0.650066,-0.990987,1.25256,-0.666637,2.03744,0.855445,0.673125,-0.00805211,-0.543684,-0.196786,-1.47362,-3.08575,-0.211745,-0.0537157,1.09276,-1.79725,0.942072,-2.27524,0.856688,-1.15968,1.32743,0.915013,-0.453342,0.667236,-1.99211,0.847802,-0.616655,-3.72677,1.29331,-1.11082,1.83729,-1.11165,0.984746,-0.595169,2.80027,-1.75658,0.661436,2.1204,0.0873753,0.627678,-1.78568,0.216705,0.686855,-2.94626,0.467129,0.663297,0.925124,-0.45368,3.50069,-1.52767,4.39526,-1.60018,0.13002,1.87829,0.0652296,0.960843,-1.47478,0.135899,-0.312534,-3.92996,1.68577,0.184009,0.0808839,-1.27029,4.57142,-1.24628,2.87921,-1.39126,-1.73218,1.59177,0.338475,-0.672306,-1.18009,0.947442,2.38839,-3.83795,2.08581,-0.127161,-0.871287,-0.478704,3.33277,-0.387761,1.5819,-2.01401,-1.26621,0.98562,2.33862,0.44539,-0.644261,-0.104621,3.74105,-4.15912,1.41449,0.305358,-0.883081,0.911785,5.06367,1.17172,1.78165,-2.86933,-1.12037,1.25799,1.0642,-0.338966,-1.40123,0.860443,4.76232,-3.33429,0.93505,1.83985,-0.73197,0.887161,4.1444,2.44575,1.07077,-2.43676,-0.500276,0.767729,1.67964,-0.678698,-0.388775,-0.27994,4.12356,-0.439073,1.366,1.99461,2.1077,-0.761306,1.93582,0.607616,-1.01638,-1.39955,0.100717,0.275113,2.59305,-0.802759,1.36011,0.0565602,2.39133,-2.17075,1.28442,2.04408,0.0527599,-0.0846736,1.40465,-0.105921,-2.42575,-1.63233,0.733214,-0.0647692,0.476737,-0.345005,-0.0428153,-0.828345,1.76148,-2.48591,0.84729,1.35475,1.29719,0.452004,-0.410661,-1.36484,1.36481,-0.666462,0.720194,-1.4136,-0.643486,-0.928318,0.283022,0.00444694,1.11584,-2.14746,1.01926,-1.04524,0.960892,-0.373051,0.215672,-1.36616,3.50747,-2.01871,0.593047,-0.828487,0.0050313,0.138027,-0.133143,-0.216317,0.624207,-1.24603,-0.852139,-1.37668,0.661655,0.288435,-0.118656,-1.80504,2.90834,-1.31206,0.653591,0.562762,-0.285999,0.739704,-0.105506,-0.218655,0.512548,-0.260849,0.483064,-0.826168,-1.2255,-0.164749,-1.06398,0.111342,2.89762,-2.8062,0.930316,-0.231847,-0.284005,-0.742462,-0.122697,0.229586,0.406364,0.328626,0.0226038,-0.569445,-0.0737947,0.0591713,-0.880239,-0.924584,2.48415,-1.56431,-0.287064,1.05064,0.351171,0.378926,-0.559804,0.424086,0.705922,0.142697,0.255592,-1.11874,-1.95632,-0.281413,-0.90317,-0.584943,4.21356,-1.25701,-0.383427,1.74768,0.652822,-0.0788869,-1.18107,-0.297874,0.480631,-0.363556,0.306957,0.277663,-1.3299,-1.21999,-2.66089,-0.598881,2.14162,-0.609133,0.493644,0.97141,0.131004,0.15758,-1.12224,0.856938,1.04051,-1.80707,1.05307,-0.458,-0.712169,-1.94305,-0.0780617,-0.248066,3.17145,-0.626994,0.889457,0.833471,0.214804,0.767956,-1.39845,-0.109134,-0.70834,-0.788869,-0.333929,1.87569,-1.30598,-2.02085,0.966942,-0.48722,2.25637,-1.4667,-0.128381,1.43438,1.35202,0.932844,0.441019,0.615712,-1.47941,-1.00608,0.348475,1.7344,-0.000981565,-2.52642,0.298425,0.0271678,1.37564,-0.106359,-0.396203,0.37916,1.30534,0.0836158,0.712291,0.87035,-0.601228,-0.710526,0.266303,0.619424,-1.06992,-2.67902,-0.678519,-0.115016,-0.14555,-0.287481,-0.352069,-0.558842,0.443547,-0.467851,0.807592,-0.0512591,0.634077,0.487492,-0.675328,0.0888988,-0.190641,-0.549648,-0.430406,0.557525,-0.861241,0.52212,-0.55484,0.249241,-0.349142,-0.555721,0.110178,0.408555,0.127506,-0.401207,-0.314598,0.24377,-0.202331,-0.19365,-0.6588,0.464899,0.834149,0.250813,0.710299,-0.283071,0.781982,0.625584,0.66567,0.264968,0.193535,0.958957,-0.675727,-0.988805,-0.261572,-0.116381,0.50813,-0.1359,-0.581418,-0.964985,-0.896072,0.0371615,-0.520706,0.214106,-0.554283,0.571032,0.813562,0.129519,-0.18702,-0.389417,-0.983664,0.218456,-0.947063,0.849219,-0.568995,0.800347,-0.4328,-0.804336,0.41794,-0.768182,0.301436,-0.380421,-0.793093,0.764449,-0.328156,-0.275429,-0.311602,-0.992733,0.630433,0.0854664,-0.705697,0.893793,-0.729249,-0.3113,0.0841908,-0.430014,-1.34527,-0.0655157,0.655818,-0.20702,1.09597,0.693319,-1.03335,-1.61181,-0.268845,-0.400131,0.949923,-0.874461,0.390496,0.131113,-0.643872,-0.73253,-0.435594,-0.420048,-1.75724,-1.58743,0.961299,0.328434,-1.40569,-2.44282,-0.273739,-0.741738,1.31743,0.519234,1.15478,0.043236,0.199218,0.268167,-0.456369,-0.757716,-2.56889,-1.10029,0.741522,0.232947,-1.80969,-1.45016,-0.835309,0.290837,2.40192,0.412649,0.786789,2.07246,-0.750225,-0.975382,-1.06622,-0.726603,-2.66103,-3.17067,0.317026,-0.859131,0.561353,-1.21082,-1.43981,-1.05343,2.65052,0.531641,2.0494,1.66447,-0.405299,0.962711,-0.981991,0.347415,-0.911309,-2.75321,1.65002,-0.460602,1.17803,-0.90122,0.400139,-1.47165,2.95261,-0.56151,1.25128,1.69609,-0.377596,-0.0571632,-0.675276,0.54048,0.234323,-4.47526,0.824679,-1.27297,0.391054,-0.588778,1.24015,0.177684,2.37108,-0.360648,1.0298,2.44827,-0.991926,-0.656855,-0.752104,-0.799507,1.1286,-4.48151,0.574546,0.0433348,-0.550865,-1.47133,1.21409,-1.7365,3.46002,-1.63158,2.05488,2.32244,-1.59002,-0.359936,-1.49056,0.270807,1.28097,-5.26454,0.85545,1.17821,-1.26288,-0.743615,1.37839,0.242538,3.36611,-2.24153,1.69497,1.76664,1.41717,-0.0934277,-1.07009,-0.358691,2.80095,-4.6781,-0.361695,-0.305628,-0.914984,-1.35542,0.932462,1.80294,2.59926,-3.12784,1.92752,1.29638,1.09564,-0.0898166,-0.332148,1.00609,2.11734,-3.909,-0.400865,1.08083,-2.23518,1.4097,1.5229,0.2424,2.59751,-1.87599,2.50758,0.118162,2.02255,-0.462973,0.783752,0.227044,2.24419,0.337698,-0.522069,2.46671,0.365748,0.722326,1.626,-0.819303,2.74489,-0.158512,3.51526,-1.09396,1.57886,-0.498071,-0.948657,0.915628,2.67736,-0.458391,0.691321,0.946263,1.77229,1.03969,0.397843,-0.602135,1.49759,-2.24073,2.23491,-2.38341,1.34077,-0.0542161,0.137047,-0.674739,2.65708,0.193048,1.28038,-0.305891,1.29238,0.610449,-1.05712,-1.269,4.19992,-1.59089,0.523923,-0.915784,1.50451,0.702632,1.02459,0.670399,0.719414,-0.259061,0.153528,-0.659785,0.862306,-1.50279,-0.169001,-1.42307,4.91462,-0.245833,1.01711,-2.28873,1.17919,0.158437,-0.350124,-0.698768,1.34369,-0.395905,-0.710794,-1.67172,1.25676,-0.0920989,-0.461335,-1.90203,3.9142,-0.500905,1.12133,-1.6375,0.332756,0.459087,-1.495,0.829545,-0.376306,0.0686453,1.16319,-0.0133587,0.811314,-0.906554,-0.419161,-1.60069,4.83292,-1.64762,-1.13099,-0.810037,-0.284653,0.220984,-0.914465,0.656008,1.27722,1.31354,1.54321,-0.138756,0.115785,-0.889657,-0.359713,-1.32523,4.13479,-1.71837,-0.0453888,-0.0907299,-0.291229,0.226056,0.104604,-0.164672,0.101048,0.863896,0.133123,-0.317459,-1.16749,-0.693004,0.488552,-1.71358,3.52084,-1.13232,-0.608368,0.0111432,0.736464,0.160448,-1.11798,0.393638,-0.0125916,0.307432,-0.338906,0.00289555,-1.66358,-0.687373,0.143824,-0.654403,4.16267,-0.663458,0.505383,0.936831,-0.176618,0.142681,-0.537394,-0.460726,-0.939582,-0.697068,0.187552,0.614202,-0.272364,-2.02104,1.59567,0.500412,2.79148,0.201128,-0.410036,0.0794765,0.948677,-0.583437,-0.712378,0.656129,-1.63954,-1.75494,0.152211,0.757359,-0.961977,-0.976198,2.56833,-0.503266,1.66028,-0.99676,-1.16246,-0.135019,0.418317,0.0457612,0.0664027,0.136149,-1.5072,-0.386962,-0.325124,0.0526378,-0.451884,-0.600362,-0.0648171,0.958775,1.7464,-1.25677,-0.8643,0.0620583,1.02291,-0.260645,-0.659262,0.0703636,-0.470036,0.243245,0.751504,1.12559,-0.494981,-0.321511,-0.313536,-0.311905,-0.430024,-0.31843,-0.190752,-0.160935,-0.656579,-0.996023,0.628798,-0.761216,0.236575,-0.98673,-0.645999,-0.648425,0.960348,-0.721903,-0.733263,0.728198,-0.267626,-0.0685058,-0.54249,0.511414,0.711329,-0.0960854,-0.420261,-0.457357,-0.576845,-0.603715,-0.594337,-0.00471697,0.958602,-0.0811639,0.677313,-0.559656,0.902478,-0.248036,-0.0157483,0.931881,-0.243757,-0.335692,-0.829335,0.827748,-0.2212,-0.488658,-0.903918,-0.27512,-0.139689,-0.638212,-0.599518,0.581172,0.317729,-0.136061,0.0905472,0.0129902,0.767854,0.670286,0.555634,-0.808988,-0.933432,0.961429,0.186578,-0.974811,-0.119843,-0.13682,-0.543064,-0.217371,0.627279,0.449749,-0.28357,-0.627857,-0.890765,-0.114826,-0.829769,-0.10902,0.388708,-0.716468,0.723776,-0.800143,-0.34495,-1.16957,0.603929,1.02853,-0.0117625,-0.0444304,0.128861,-0.25209,-0.477927,-0.455854,-0.513052,-0.325512,-0.603671,-1.20388,0.228079,0.378909,-0.515152,-1.64277,-1.44267,-0.529722,0.313799,-0.270943,0.207604,0.0782683,0.89438,0.0788186,-0.343645,0.183454,-0.170358,-0.162058,1.15734,-0.177265,-0.359153,-1.94014,-2.16333,-0.930758,0.399202,-0.565767,0.413071,0.273458,0.862923,0.6218,-0.638612,-0.924869,-0.709832,-1.40845,0.88424,0.272519,-0.894717,-1.37701,-0.957966,1.50156,2.09705,0.513607,0.212134,-0.00811469,0.338446,-0.763166,-0.880365,-0.557638,-1.11322,-1.79391,0.0898056,-0.897196,-0.339933,-0.774006,-1.18581,-0.432612,4.36695,1.28406,2.21633,1.13593,0.903093,-0.478074,-1.01472,-0.0262939,-1.29312,-2.74925,0.848406,-0.0806751,0.127761,0.365082,0.336671,-0.585852,2.84492,0.170117,2.01795,1.89322,-0.37469,-0.815693,0.404792,-0.713248,0.702242,-2.68871,-0.346323,-0.303087,-0.264343,-0.135713,-0.222641,-1.25787,3.11474,-0.156679,1.75148,1.15314,-1.16784,-0.995592,0.764894,0.74836,1.00723,-2.28602,0.426092,-0.132014,-0.394167,-0.121667,1.59073,0.513486,2.99164,0.599227,2.21646,1.65237,-0.0773718,0.0780714,-0.571008,0.0499178,2.65398,-2.00451,-1.79032,0.995639,-0.399248,-0.0276019,1.38329,-0.022,3.82451,0.304923,4.05645,1.48771,-0.0370187,0.124524,-0.638591,0.470308,1.86384,-3.198,-0.624807,1.03577,0.231967,1.15061,0.893547,0.313541,3.1211,-0.213213,3.54514,0.354342,1.14885,0.291954,1.64536,0.143725,1.89957,-0.482601,-1.97038,-0.651563,-0.724421,0.208189,2.05196,-0.312735,4.90832,-0.422314,3.40585,0.205026,-0.476483,-0.382782,-0.607807,-0.470387,2.10156,-0.587734,-0.737614,0.00884305,-0.36137,1.35405,0.917727,-0.117038,2.90425,-1.02087,2.59414,-0.442522,1.00574,0.752179,0.079388,0.10132,3.39091,1.96576,-0.13905,0.508314,0.782986,1.52754,1.0065,-0.735373,3.53878,0.51513,2.62362,-1.59712,0.267442,0.870695,0.742742,0.120329,2.35157,0.267563,0.434033,0.74489,0.101871,2.357,0.464792,-0.35497,2.57225,0.770169,0.770974,-2.25416,-0.0537025,0.75108,0.426989,1.01023,1.15636,0.767494,0.105813,0.913593,0.592063,0.638342,0.33587,-0.288253,3.63568,0.302331,1.84092,-0.654139,0.391313,0.164782,0.146137,-0.0942268,0.0625399,-0.656792,-0.436173,-0.407915,1.4434,0.39206,-0.4188,-0.992996,2.6196,-0.727696,0.525549,0.0413034,-0.345094,-0.598617,0.726754,-0.559033,1.13383,0.0109235,-0.0972806,0.529143,0.214045,0.649577,0.148052,-0.319218,4.19366,-0.572385,0.634302,-1.23714,0.864297,-0.457225,-1.24184,-0.658108,0.92449,-0.289852,1.33954,-0.0675025,0.216308,-0.094992,0.728236,-1.54446,3.60969,-0.404183,-0.119994,0.692543,1.31901,-0.846978,0.857367,-0.134461,-0.579861,-0.793651,-0.231961,0.201007,-1.02284,-0.213117,-0.320364,-1.56628,3.01991,-1.26613,-0.0893412,1.47597,0.543152,0.211672,-0.239794,0.777417,-2.27937,-0.608348,0.332344,0.633582,-1.01842,0.0320701,1.23306,0.398763,3.37132,-1.1637,-0.386279,0.730927,0.178531,-0.413786,-0.210217,-0.302035,-1.14095,-1.09162,1.44733,0.925023,-2.01048,0.581831,1.03495,-1.08661,1.51327,-1.29073,0.365031,0.58987,1.53041,-0.995279,-0.0175686,0.519639,-0.407249,0.499732,0.401233,0.355856,-1.1701,-1.0089,1.06959,-0.605913,1.14258,-0.27599,-0.0448356,0.433854,0.640133,0.784566,0.685141,0.303394,-1.02137,-0.102971,0.599965,-0.0710896,-0.265867,-0.549411,0.598296,0.250235,0.781907,-0.900752,-1.37948,0.194968,0.537009,-0.0256738,-0.583897,-0.722001,-0.441546,0.327456,0.131202,0.586861,0.902028,0.0245631,1.14542,-0.292552,0.301023,0.423017,0.541411,0.666511,0.677665,0.483039,-0.231388,0.926046,-0.300954,-1.07998,-0.462161,0.704228,0.286012,0.221887,-0.0807586,-0.0879889,0.962326,0.113205,0.994141,-0.351566,-0.85704,-0.411267,-0.0735881,-0.161104,0.977795,-0.983487,-0.775743,0.948334,0.705381,-0.859694,-0.348465,-0.00128728,0.807436,-0.608403,-0.517212,0.259132,0.874646,0.26983,0.185178,-0.518377,0.300954,0.705617,-0.849888,-0.374012,-0.0293991,0.066541,0.533111,-0.0750896,-0.790868,0.522128,0.573324,-0.673985,-0.889139,-0.500264,0.164911,-0.911344,-0.483752,0.389172,-0.96301,-0.77837,0.529481,-0.311485,0.220027,0.336911,0.0805591,0.703065,-0.403958,-0.0452211,-0.0272858,0.78122,0.426112,-0.727653,0.465705,0.601302,0.0821348,-0.584722,-0.348803,-0.865058,0.163133,-0.0839484,1.06403,-0.0218168,0.213975,-0.822058,0.40537,-0.646854,-1.02614,0.977222,0.664959,-0.852054,-0.218357,0.127264,-0.227244,-0.501122,-0.896642,0.847075,0.444939,0.24298,0.142313,-0.590487,-0.0962318,-0.64859,-1.14975,-0.517289,0.632757,0.217745,0.760371,-0.149702,0.405084,-2.49396,-0.625799,0.56618,1.04178,-0.439474,0.789783,0.141287,0.0633549,0.871768,-1.02318,-0.24144,-1.75239,-0.264255,-0.0423573,0.852405,-1.11849,-2.2455,-0.458799,1.56511,2.71766,0.406415,0.382509,0.243284,-0.612218,0.87177,-0.713335,-0.837629,-1.23834,-1.584,1.30098,-0.396013,-0.11406,-2.27855,-0.910303,1.8981,2.93116,-0.142525,0.25646,1.30463,0.419827,0.210707,-1.55063,-0.778054,-2.03713,-0.869059,0.844018,-0.677823,0.903226,0.515647,0.586625,0.840842,3.98534,2.07254,1.74575,1.45588,1.08239,0.0625904,-1.65743,-0.554389,-0.818299,-0.10043,0.165373,0.115037,0.541606,-0.610112,0.124948,0.522254,3.88498,1.60021,1.77533,1.535,-0.261446,-0.962771,-0.790639,0.533952,-0.381665,-0.128413,-0.133119,0.36352,0.417514,-0.877644,-0.0302021,-0.607575,1.35878,1.94543,1.58213,0.340162,-0.504642,-0.0351501,-0.94391,-0.0772744,0.999239,0.142272,-1.13307,-0.515836,-0.653353,-0.765976,-0.486956,-0.432346,0.750078,2.71054,2.2831,1.49685,-0.293486,0.13902,-0.118427,-0.381082,-0.983269,-0.102387,-1.63065,-0.221959,-0.766048,1.54812,-1.07452,-1.06775,4.47156,1.97648,2.86021,1.16337,-0.840992,-0.882883,-0.389402,0.999594,1.00731,-1.12497,-1.61034,-1.3471,-0.574181,1.66092,0.922257,-1.39385,4.78195,0.157894,1.81935,0.514153,1.05554,0.542575,-1.81085,-0.13407,-0.425102,-0.613085,-2.17656,-0.557555,-1.94628,0.641565,1.89424,0.240053,3.21642,1.17333,1.46295,1.16593,0.0477641,-0.357106,-1.0828,0.952811,0.313654,-0.957291,-1.12762,0.874351,-0.0540847,1.12003,0.957823,-1.56861,2.25904,2.4183,0.0895656,0.434968,-1.1632,-0.754084,-0.417838,0.0387462,0.0242372,0.252161,0.678866,0.0628669,0.553759,0.435627,-0.64967,-1.80671,2.14572,2.59138,2.84792,-0.635709,0.233892,0.514079,-0.678011,-0.104367,-0.262006,-0.468525,-0.957162,0.213057,0.942992,0.461012,-1.21521,-0.835662,2.21135,2.40161,3.07357,-0.554147,-0.561292,0.603179,0.449681,-0.832872,0.283167,0.299157,-0.890786,0.516914,2.27287,-0.0246429,-0.108207,-0.181154,2.89494,1.67501,2.31603,0.636582,-0.517342,0.59622,0.372495,0.191071,-0.735762,0.544117,-0.221333,0.109156,1.63769,1.52076,-0.104291,-0.378419,3.29022,1.57235,2.03155,-0.034099,-0.131227,0.225057,0.607474,-0.485716,-1.13929,-0.175499,-1.06379,1.20701,-0.407788,-0.0157495,0.00214937,-1.44658,2.41826,0.523901,1.73057,0.67318,0.0807189,-0.880244,0.624836,-0.153349,-1.30521,-1.0258,0.392183,0.169109,0.11765,0.164603,1.64473,-0.440937,2.63546,1.16198,-0.954726,0.159493,1.03415,0.973836,2.41461,0.391156,-0.409797,-1.55053,0.183002,-0.577008,-1.25653,-0.559661,0.983713,-0.328803,1.32661,-0.476763,-1.15264,0.23827,0.805941,0.027391,1.41387,0.335526,0.0638392,-0.0577636,1.67406,0.393062,-0.837444,0.0999359,1.43831,-0.0230304,1.96423,-0.392664,-0.583055,-0.211038,1.71644,-0.911035,0.882096,0.102544,-1.39343,0.300065,1.12126,-0.279199,-0.255963,-1.88616,1.64526,0.928748,-0.0973666,-1.73377,-0.230119,0.0500897,1.11174,-0.0210162,-0.841603,-0.143011,-0.778058,-0.88424,-0.266113,0.33002,0.736382,-0.235349,-0.534753,0.19378,-0.26749,-1.13869,0.392185,0.652593,0.178376,0.549351,-0.0416024,-0.195338,-0.594482,-0.550863,0.767914,0.666017,-0.542817,0.157647,0.659408,-0.105882,0.437663,-0.507148,0.664651,-0.611136,0.779692,-0.909605,0.320634,-0.903748,-0.824874,0.881632,0.210256,0.889609,0.23467,0.31975,0.0752932,0.909485,0.783115,-0.249024,0.778907,-0.742728,-0.696158,-0.208896,0.104617,-0.198099,0.236284,-0.225726,-0.581331,0.708918,-0.87605,0.989129,-0.400983,0.524169,-0.389764,-0.583666,-0.997557,-0.789673,-0.493252,0.334189,-0.693421,-0.351485,0.218877,0.511929,-0.476614,-0.551535,-0.160817,0.598832,-0.681666,-0.391695,-0.64687,-0.902301,-0.0917409,-0.343221,-0.111197,-0.987124,0.45868,-0.874913,-0.212851,0.877349,0.834005,-0.0889002,0.866478,-0.566978,-0.564731,-0.523286,-0.150624,-0.562411,-0.312959,0.356123,0.771778,-0.00637972,-0.989536,-0.00734967,-0.508921,-0.461266,0.484197,0.296306,-0.871345,0.640326,0.956651,-0.520169,1.03763,-0.135024,0.1397,-0.171444,-0.155339,-0.404555,-0.235803,0.664397,-0.559811,-0.178697,-0.262849,-0.877248,0.0773823,-0.557541,-0.425039,0.931706,0.713768,0.66086,0.438899,0.432279,-0.590257,0.34621,-0.976457,0.0036215,0.856006,1.0446,-0.254509,-1.08322,0.363006,-1.74195,-1.30284,0.191326,0.512515,0.961505,-0.839159,-0.738177,-0.906684,-0.127562,0.139429,-0.301011,0.282825,0.125545,0.676644,-0.408704,0.103279,-0.338679,-1.12564,0.455535,0.982928,-0.547351,0.876691,0.936245,0.5481,-0.853092,-1.02547,0.294009,0.00174345,1.76155,1.68552,-0.0503988,0.340607,-1.57838,-0.710933,0.986559,1.48047,0.484384,0.285097,0.56884,0.929079,-0.616449,-1.51948,-0.0298188,-1.341,1.62647,1.08083,0.90367,-0.304423,-2.33531,-0.0316607,0.789473,0.246679,1.14964,1.29513,0.513983,0.478505,0.153681,-1.27579,-0.391287,-1.50677,0.638802,0.225952,0.0950457,-0.397075,-0.704525,-0.337437,0.989464,1.4719,1.65084,1.26038,0.757763,-0.337532,0.190775,-0.664043,-0.717259,-1.37461,0.0232958,-1.3617,0.0830113,1.09405,-0.184436,-1.06716,-0.152907,2.81841,1.24236,1.88882,-0.792695,-0.744756,0.924006,-0.515643,0.957122,-1.94165,0.438384,-0.627937,-2.06138,0.509223,0.551008,1.3048,-0.125685,2.60252,0.750767,2.81534,0.176235,0.25732,-0.914231,-0.859238,-0.757756,-2.14998,-0.288022,-0.549602,-1.30662,-0.978643,2.0495,1.21637,-0.232911,3.3117,2.2781,2.69568,0.976543,0.553879,-0.790938,-1.61588,0.740831,-1.96027,0.44627,-0.224973,-1.1541,-0.00570718,1.85682,1.31293,0.0494597,5.43399,2.82502,1.1097,-0.576011,0.403112,-0.0669616,-1.95158,-0.640283,-1.7546,-0.796189,-0.486578,-1.38948,-0.200621,0.24932,1.99449,0.910384,3.809,2.7094,-0.480824,-0.333402,-1.19116,-0.273184,-0.339244,-0.831444,-2.14132,-0.172806,-0.246304,-0.331893,0.216053,2.03654,-0.12928,1.02244,3.62442,2.03619,0.902148,-0.805477,-1.79228,0.117239,0.181412,0.465401,-2.3185,-1.30031,0.284763,0.822646,0.417365,2.10431,0.034728,-0.649227,3.64159,2.02824,1.3169,-0.356323,-1.40441,-0.0177364,-0.0688025,0.111131,-1.08706,-0.504608,-1.09061,0.441138,0.785101,1.77895,0.744147,-1.22413,1.1636,3.22811,1.46989,-0.461626,-1.9204,0.931774,1.08782,-0.0771985,-1.03864,0.82122,-1.17319,0.148682,1.17606,1.63781,-0.699353,0.00787655,2.93613,2.44721,1.13649,-0.635214,-0.8947,0.466169,1.56061,0.272235,-0.72865,-0.467173,0.267695,0.174731,1.31998,0.496742,0.451761,-0.744331,1.01668,1.8595,0.368004,-0.98099,-1.42013,-0.151351,0.802939,0.287116,-1.28527,-0.1954,-0.307934,-0.519998,0.68512,1.02783,-0.400664,-0.00408545,2.9551,1.79348,-1.18606,0.309743,0.13862,-0.645076,1.43855,0.790487,-0.810662,0.0277482,0.503172,-1.33578,-0.636301,1.52735,1.42249,-0.811341,1.56125,-0.226285,-0.605513,-0.707278,0.27275,-0.869093,2.66911,0.313824,0.602055,0.212439,-0.205111,0.0124848,-1.2353,0.342183,0.983153,-1.13845,1.73484,-0.127443,0.272117,0.225045,0.949175,-0.643838,0.502515,-0.531418,-0.640938,-0.401343,0.64986,-1.04684,0.134545,-0.970804,1.21336,0.523114,0.0666865,-1.63598,-1.39373,0.909756,-0.327305,-0.878704,0.181561,-0.795884,-0.0575355,0.69079,1.03138,-0.274163,0.140035,-0.72472,0.814349,0.234345,0.83411,-0.273425,-1.41014,0.529103,0.846149,-0.189747,0.724274,0.530401,0.0280591,-0.275587,-0.679075,-0.443883,-0.34607,0.371728,-0.90256,-0.00600265,0.632164,-0.970292,-0.678801,0.795555,-0.259175,0.129636,-0.935947,0.398418,-0.946717,0.671034,-0.330553,0.40318,-0.867255,-0.970715,-0.36071,0.826683,0.171727,-0.245002,0.110846,-0.567072,0.613423,-0.118385,-0.954428,-0.407038,0.541734,-0.767649,0.144075,-0.765,0.680986,0.239457,0.226987,0.445295,0.595408,0.621497,0.117161,0.930101,-0.239713,0.187652,0.371245,-0.168293,-0.130118,0.99167,-0.766254,0.00418222,-0.977038,-0.125883,-0.16938,0.119111,0.64386,0.944186,0.63628,0.223856,-0.174199,0.680579,0.816818,-0.634925,0.911978,-0.0430589,-0.400487,0.56437,-0.799541,0.827908,-0.200977,0.747984,0.458988,0.908114,0.720811,-0.780296,0.0957661,0.0920565,0.0514112,0.965648,0.0837266,0.285157,-0.0301697,0.106688,-0.840726,0.80045,-0.7742,0.803134,0.744636,0.86208,0.0269903,-0.429563,0.542659,-0.156191,-0.0644881,0.454951,0.798652,0.546669,0.0308715,-1.03274,0.363554,0.79512,0.748426,-0.178079,0.986611,0.49958,0.0417443,-0.17809,-0.455643,-0.906964,-0.243352,0.646101,0.379204,0.983573,-0.164043,0.308567,0.550995,-0.147394,0.235892,0.306083,0.0939624,-0.536865,1.00804,-0.617233,0.108774,-0.191577,0.748011,0.0132771,-0.67091,0.689527,0.109758,0.281021,-0.291722,-0.52755,-1.06676,-0.607159,-0.771018,0.863084,0.395555,-0.174186,0.36736,-0.989699,-0.600193,0.0558326,0.682231,1.89963,-0.372636,0.266397,-1.20748,0.669042,